SVM-light Version V5.01-TK-1.5
5 # kernel type
3 # kernel parameter -d 
1 # kernel parameter -g 
1 # kernel parameter -s 
1 # kernel parameter -r 
empty# kernel parameter -u 
0.9 # kernel parameter -L 
1 # kernel parameter -T 
T # kernel parameter -C 
4 # kernel parameter -F 
1 # kernel parameter -S 
0.400000 # kernel parameter -M 
3 # kernel parameter -N 
L # kernel parameter -V 
S # kernel parameter -W 
0 # kernel parameter -U 
0 # highest feature index 
310 # number of training documents 
232 # number of support vectors plus 1 
-0.071472485 # threshold b, each following line is a SV (starting with alpha*y)
-0.49984610007789037622316641318321  |BT| (NP (NP (T1 (NN (KinC))))(CC (and))(NP (T2 (NN (KinD))))) |ET| 
-1  |BT| (NP (T1 (NP (NP (NN (sigma)))(PRN (-LRB- (<LB>))(NP (NN (A)))(-RRB- (<RB>)))))(CC (and))(NP (NP (DT (the))(JJ (phosphorylated))(T2 (NN (Spo0A)))))) |ET| 
-0.030098963078938518328486750874617  |BT| (NP (NP (T1 (NN (SigK))))(CC (and))(NP (T2 (NN (GerE))))) |ET| 
-1  |BT| (VP (VP (PP (NP (T1 (NP (NP (NN (sigma)))(PRN (-LRB- (<LB>))(NP (NN (F)))(-RRB- (<RB>))))))))(, (,))(CC (and))(PP (TO (to))(NP (DT (a))(JJR (lesser))(NN (extent))))(PP (IN (by))(T2 (NP (NP (NN (sigma)))(PRN (-LRB- (<LB>))(NP (NN (G)))(-RRB- (<RB>))))))) |ET| 
-0.42437658954913820563703552579682  |BT| (NP (NP (T1 (NN (spo0A))))(CC (and))(NP (T2 (NN (spoVG))))) |ET| 
0.93080356885915116471608143910998  |BT| (S (NP (NP (T1 (NN (KinC))))(CC (and))(NP (NN (KinD))))(VP (VBD (were))(ADJP (JJ (responsible))(PP (IN (for))(NP (T2 (NN (Spo0A~P)))))))) |ET| 
1.0129870129870128803162288022577  |BT| (S (T1 (NP (NN (sigma))(NN (W))(NN (regulon))))(VP (VBZ (includes))(NP (NP (NP (NP (DT (a))(NN (penicillin))(NN (binding))(NN (protein)))(PRN (-LRB- (<LB>))(NP (NN (PBP4))(NN (*)))(-RRB- (<RB>))))(CC (and))(NP (NP (DT (a))(JJ (co-transcribed))(NN (amino))(NN (acid))(NN (racemase)))(PRN (-LRB- (<LB>))(NP (NN (RacX)))(-RRB- (<RB>)))))(, (,))(NP (NP (NNS (homologues)))(PP (IN (of))(NP (NP (NN (signal))(NN (peptide))(NN (peptidase)))(PRN (-LRB- (<LB>))(NP (T2 (NNP (YteI))))))))))) |ET| 
0.48430439593159407829503493303491  |BT| (NP (NP (T2 (NN (spoIIG)))(NN (gene)))(, (,))(SBAR (WHNP (WP$ (whose))(NN (transcription)))(S (VP (VBZ (depends))(PP (IN (on))(NP (CC (both))(T1 (NP (NP (NN (sigma)))(PRN (-LRB- (<LB>))(NP (NN (A)))(-RRB- (<RB>))))))))))) |ET| 
1.0129870129870128803162288022577  |BT| (NP (NP (T2 (NN (spoIIG)))(NN (gene)))(, (,))(SBAR (WHNP (WP$ (whose))(NN (transcription)))(S (VP (VBZ (depends))(PP (IN (on))(NP (CC (both))(NP (NP (NN (sigma)))(PRN (-LRB- (<LB>))(NP (NN (A)))(-RRB- (<RB>))))(CC (and))(NP (NP (DT (the))(JJ (phosphorylated))(T1 (NN (Spo0A))))))))))) |ET| 
0.38328937604249030401959430491843  |BT| (NP (NP (T1 (JJ (sigmaK-dependent)))(NN (transcription)))(PP (IN (of))(NP (T2 (NN (gerE)))))) |ET| 
-1  |BT| (S (S (VP (NP (PP (NP (T1 (NN (yvyD)))))(PP (PP (IN (under))(NP (NN (stress))(NNS (conditions))))(CC (and))(PP (IN (after))(NP (NN (glucose))(NN (starvation))))))))(, (,))(IN (whereas))(S (NP (DT (a))(JJ (sigmaH-dependent))(NN (promoter)))(VP (VBZ (is))(ADJP (JJ (responsible))(PP (IN (for))(NP (NP (T2 (NN (yvyD)))))))))) |ET| 
0.29020380456793820611594014735601  |BT| (NP (NP (T1 (JJ (sigmaB-dependent)))(NNS (genes)))(PRN (-LRB- (<LB>))(NP (NP (T2 (NN (ydaE))))))) |ET| 
-1  |BT| (S (NP (PP (NP (T1 (ADJP (NN (sigma))(-LRB- (<LB>))(NN (K))(-RRB- (<RB>))(JJ (-dependent))))(NN (cwlH))(NN (gene)))))(VP (VBD (depended))(PP (IN (on))(NP (T2 (NN (gerE))))))) |ET| 
1.0129870129870128803162288022577  |BT| (S (NP (T2 (NN (ywhE)))(NN (expression)))(VP (VP (VBZ (is))(ADJP (JJ (sporulation-specific))))(, (,))(CC (and))(VP (VBZ (is))(VP (VP (VBN (controlled))(ADVP (RB (predominantly)))(PP (IN (by))(NP (NP (DT (the))(JJ (forespore-specific))(NN (sigma))(NN (factor)))(NP (NP (NN (sigma)))(PRN (-LRB- (<LB>))(NP (NN (F)))(-RRB- (<RB>)))))))(, (,))(CC (and))(PP (TO (to))(NP (DT (a))(JJR (lesser))(NN (extent))))(PP (IN (by))(T1 (NP (NP (NN (sigma)))(PRN (-LRB- (<LB>))(NP (NN (G)))(-RRB- (<RB>)))))))))) |ET| 
0.10039629838542728224037858808515  |BT| (S (T1 (NP (NN (sigma))(NN (W))(NN (regulon))))(VP (VBZ (includes))(NP (NP (NP (NP (DT (a))(NN (penicillin))(NN (binding))(NN (protein)))(PRN (-LRB- (<LB>))(NP (NN (PBP4))(NN (*)))(-RRB- (<RB>))))(CC (and))(NP (NP (DT (a))(JJ (co-transcribed))(NN (amino))(NN (acid))(NN (racemase)))(PRN (-LRB- (<LB>))(NP (NN (RacX)))(-RRB- (<RB>)))))(, (,))(NP (NP (NNS (homologues)))(PP (IN (of))(NP (NP (NN (signal))(NN (peptide))(NN (peptidase)))(PRN (-LRB- (<LB>))(NP (NNP (YteI)))(-RRB- (<RB>))))))(, (,))(NP (NP (NN (flotillin)))(PRN (-LRB- (<LB>))(NP (NN (YuaG)))(-RRB- (<RB>))))(, (,))(NP (NP (NN (ABC))(NNS (transporters)))(PRN (-LRB- (<LB>))(NP (T2 (NNP (YknXYZ))))))))) |ET| 
0.83073792344637487072844805879868  |BT| (NP (T1 (ADJP (NN (sigma))(-LRB- (<LB>))(NN (K))(-RRB- (<RB>))(JJ (-dependent))))(T2 (NN (cwlH)))) |ET| 
-1  |BT| (S (NP (T1 (NN (sigmaH-RNAP))))(VP (VBD (was))(VP (VBN (observed))(S (VP (TO (to))(VP (VB (be))(ADJP (RBR (more))(JJ (sensitive))(PP (TO (to))(NP (NN (ClpX-dependent))(NN (stimulation))))(SBAR (IN (than))(S (NP (T2 (NN (sigmaA-RNAP))))))))))))) |ET| 
1.0129870129870128803162288022577  |BT| (S (NP (NP (T1 (NP (NP (NN (sigma)))(PRN (-LRB- (<LB>))(NP (NN (A)))(-RRB- (<RB>)))))(CC (and))(NP (NP (NN (sigma)))(PRN (-LRB- (<LB>))(NP (NN (X)))(-RRB- (<RB>)))))(NNS (holoenzymes)))(VP (VBP (recognize))(NP (NP (NN (promoter))(NNS (elements)))(PP (IN (within))(NP (DT (the))(T2 (NN (sigX-ypuN)))))))) |ET| 
-1  |BT| (NP (T1 (NP (NP (NN (sigma)))(PRN (-LRB- (<LB>))(NP (NN (A)))(-RRB- (<RB>)))))(CC (and))(T2 (NP (NP (NN (sigma)))(PRN (-LRB- (<LB>))(NP (NN (X)))(-RRB- (<RB>)))))) |ET| 
1.0129870129870128803162288022577  |BT| (S (S (NP (PP (NP (T1 (NN (ClpX)))))(PP (TO (to))(NP (ADJP (FW (in))(FW (vitro)))(NN (transcription))(NNS (reactions)))))(VP (VBD (resulted))(PP (IN (in))(NP (NP (DT (the))(NN (stimulation)))(PP (IN (of))(NP (NN (RNAP))(JJ (holoenzyme))(NN (activity))))))))(, (,))(CC (but))(S (NP (NN (sigmaH-RNAP)))(VP (VBD (was))(VP (VBN (observed))(S (VP (TO (to))(VP (VB (be))(ADJP (RBR (more))(JJ (sensitive))(PP (TO (to))(NP (NN (ClpX-dependent))(NN (stimulation))))(SBAR (IN (than))(S (NP (T2 (NN (sigmaA-RNAP)))))))))))))) |ET| 
-1  |BT| (S (S (NP (PP (NP (T1 (NN (ClpX)))))(PP (TO (to))(NP (ADJP (FW (in))(FW (vitro)))(NN (transcription))(NNS (reactions)))))(VP (VBD (resulted))(PP (IN (in))(NP (NP (DT (the))(NN (stimulation)))(PP (IN (of))(NP (NN (RNAP))(JJ (holoenzyme))(NN (activity))))))))(, (,))(CC (but))(S (NP (NN (sigmaH-RNAP)))(VP (VBD (was))(VP (VBN (observed))(S (VP (TO (to))(VP (VB (be))(ADJP (RBR (more))(JJ (sensitive))(PP (TO (to))(NP (T2 (NN (ClpX-dependent))))))))))))) |ET| 
1.0129870129870128803162288022577  |BT| (S (T1 (NP (NN (sigma))(NN (W))(NN (regulon))))(VP (VBZ (includes))(NP (NP (NP (NP (DT (a))(NN (penicillin))(NN (binding))(NN (protein)))(PRN (-LRB- (<LB>))(NP (NN (PBP4))(NN (*)))(-RRB- (<RB>))))(CC (and))(NP (NP (DT (a))(JJ (co-transcribed))(NN (amino))(NN (acid))(NN (racemase)))(PRN (-LRB- (<LB>))(NP (T2 (NN (RacX)))))))))) |ET| 
-1  |BT| (NP (NP (NP (T1 (NNP (FlgM))))(, (,))(ADJP (JJ (present))(PP (IN (in))(NP (NP (ADJP (CC (both))(ADJP (JJ (gram-positive)))(CC (and))(ADJP (JJ (gram-negative))))(NNS (bacteria)))(, (,))(SBAR (WHNP (WDT (which)))(S (VP (VBZ (inhibits))(NP (DT (the))(NNS (flagella))(NP (NN (sigma))(NN (factor))(NN (sigma))(CD (28)))))))))))(: (;))(NP (NP (NNP (SpoIIAB)))(, (,))(SBAR (WHNP (WDT (which)))(S (VP (VBZ (inhibits))(NP (NP (NP (DT (the))(JJ (sporulation-specific))(NN (sigma))(NN (factor)))(, (,))(NP (T2 (NP (NN (sigma))(NN (F)))))))))))) |ET| 
1.0129870129870128803162288022577  |BT| (S (NP (T2 (NN (sigmaH-RNAP))))(VP (VBD (was))(VP (VBN (observed))(S (VP (TO (to))(VP (VB (be))(ADJP (RBR (more))(JJ (sensitive))(PP (TO (to))(NP (T1 (NN (ClpX-dependent)))))))))))) |ET| 
-1  |BT| (S (NP (T1 (NN (sigB))))(VP (VBZ (is))(ADJP (JJ (similar))(PP (TO (to))(NP (NP (DT (the))(ADJP (RB (previously))(VBN (described)))(NN (gene))(T2 (NN (gsiB))))))))) |ET| 
1.0129870129870128803162288022577  |BT| (NP (NP (T1 (NNP (SpoIIAB))))(, (,))(SBAR (WHNP (WDT (which)))(S (VP (VBZ (inhibits))(NP (NP (NP (DT (the))(JJ (sporulation-specific))(NN (sigma))(NN (factor)))(, (,))(NP (NP (NN (sigma))(NN (F)))(CC (and))(T2 (NP (NN (sigma))(NN (G))))))))))) |ET| 
-0.36539200660733339720565027164412  |BT| (NP (NP (ADJP (PP (NP (SBAR (S (VP (NP (T1 (NP (NN (sigma))(CD (28))))))))))))(: (;))(NP (NP (NNP (SpoIIAB)))(, (,))(SBAR (WHNP (WDT (which)))(S (VP (VBZ (inhibits))(NP (NP (NP (DT (the))(JJ (sporulation-specific))(NN (sigma))(NN (factor)))(, (,))(NP (NP (NN (sigma))(NN (F)))(CC (and))(T2 (NP (NN (sigma))(NN (G)))))))))))) |ET| 
1.0129870129870128803162288022577  |BT| (S (S (NP (PP (NP (T1 (NN (ClpX)))))(PP (TO (to))(NP (ADJP (FW (in))(FW (vitro)))(NN (transcription))(NNS (reactions)))))(VP (VBD (resulted))(PP (IN (in))(NP (NP (DT (the))(NN (stimulation)))(PP (IN (of))(NP (NN (RNAP))(JJ (holoenzyme))(NN (activity))))))))(, (,))(CC (but))(S (NP (T2 (NN (sigmaH-RNAP)))))) |ET| 
-1  |BT| (S (NP (NP (T1 (JJ (sigmaK-dependent)))(NN (transcription)))(PP (IN (of))(NP (NN (gerE)))))(VP (VBZ (initiates))(NP (NP (DT (a))(JJ (negative))(NN (feedback))(NN (loop)))(SBAR (WHPP (IN (in))(WHNP (WDT (which))))(S (NP (NN (GerE)))(VP (VBZ (acts))(PP (IN (as))(NP (DT (a))(NN (repressor))))(S (VP (TO (to))(VP (VB (limit))(NP (NP (NN (production)))(PP (IN (of))(NP (T2 (NN (sigmaK))))))))))))))) |ET| 
1.0129870129870128803162288022577  |BT| (NP (NP (T1 (NNP (FlgM))))(, (,))(ADJP (JJ (present))(PP (IN (in))(NP (NP (ADJP (CC (both))(ADJP (JJ (gram-positive)))(CC (and))(ADJP (JJ (gram-negative))))(NNS (bacteria)))(, (,))(SBAR (WHNP (WDT (which)))(S (VP (VBZ (inhibits))(NP (DT (the))(NNS (flagella))(T2 (NP (NN (sigma))(NN (factor))(NN (sigma))(CD (28)))))))))))) |ET| 
-1  |BT| (ADJP (ADJP (T1 (JJ (sigmaB-))))(CC (or))(ADJP (T2 (JJ (sigmaA-dependent))))) |ET| 
1.0129870129870128803162288022577  |BT| (NP (NP (T2 (NN (yvyD)))(NN (gene))(NN (product)))(, (,))(VP (VBG (being))(NP (NP (DT (a))(NN (member)))(PP (IN (of))(NP (CC (both))(DT (the))(NP (NP (NN (sigmaB)))(CC (and))(NP (T1 (NN (sigmaH)))))))))) |ET| 
-1  |BT| (S (S (NP (NP (T1 (NN (sspL))))(NNS (genes)))(VP (VBP (are))(VP (VBN (recognized))(ADVP (RB (primarily)))(PP (IN (by))(NP (NP (DT (the))(JJ (forespore-specific))(NN (sigma))(NN (factor)))(PP (IN (for))(NP (NP (NN (RNA))(NN (polymerase)))(, (,))(NP (NN (sigmaG))))))))))(: (;))(S (NP (DT (the))(T2 (NN (sspN-tlp)))))) |ET| 
1.0129870129870128803162288022577  |BT| (S (PP (NP (ADJP (ADJP (T1 (JJ (sigmaB-dependent))))(, (,))(ADJP (JJ (stress-)))(CC (and))(ADJP (JJ (starvation-inducible))))(NN (pattern))))(, (,))(NP (T2 (NN (yvyD))))) |ET| 
-1  |BT| (NP (T1 (NNP (cotB)))(, (,))(T2 (NN (cotC)))) |ET| 
1.0129870129870128803162288022577  |BT| (S (NP (NP (T2 (NN (sspL))))(NNS (genes)))(VP (VBP (are))(VP (VBN (recognized))(ADVP (RB (primarily)))(PP (IN (by))(NP (NP (DT (the))(JJ (forespore-specific))(NN (sigma))(NN (factor)))(PP (IN (for))(NP (NP (NN (RNA))(NN (polymerase)))(, (,))(NP (T1 (NN (sigmaG))))))))))) |ET| 
-1  |BT| (VP (NP (PP (NP (T1 (NN (hag))))))(PP (IN (by))(S (VP (VBG (stimulating))(NP (NP (DT (the))(NN (transcription)))(PP (IN (of))(NP (NN (comF-flgM))))))))(, (,))(S (ADVP (RB (thereby)))(VP (VBG (increasing))(NP (NP (DT (the))(NN (production)))(PP (IN (of))(NP (NP (DT (the))(NN (FlgM))(NN (antisigma))(NN (factor)))(SBAR (WHNP (WDT (that)))(S (VP (VBZ (inhibits))(NP (T2 (NN (sigmaD))))))))))))) |ET| 
0.1546166858082792250339565498507  |BT| (S (NP (T1 (NN (sigmaA-dependent)))(NN (promoter)))(VP (VBZ (precedes))(NP (T2 (NN (kdgR)))))) |ET| 
-1  |BT| (S (NP (PP (NP (T1 (NP (NP (NN (sigma)))(PRN (-LRB- (<LB>))(NP (NN (K)))(-RRB- (<RB>)))))(NN (RNA))(NN (polymerase)))))(VP (VBZ (is))(VP (VBN (activated))(PP (IN (by))(NP (NP (DT (a))(ADJP (ADJP (JJ (small)))(, (,))(ADJP (JJ (DNA-binding))))(NN (protein)))(VP (VBN (called))(S (NP (T2 (NN (GerE))))))))))) |ET| 
1.0129870129870128803162288022577  |BT| (S (NP (T1 (NN (ComK))))(ADVP (RB (negatively)))(VP (VBZ (controls))(NP (NP (DT (the))(NN (transcription)))(PP (IN (of))(NP (NN (hag)))))(PP (IN (by))(S (VP (VBG (stimulating))(NP (NP (DT (the))(NN (transcription)))(PP (IN (of))(NP (NN (comF-flgM))))))))(, (,))(S (ADVP (RB (thereby)))(VP (VBG (increasing))(NP (NP (DT (the))(NN (production)))(PP (IN (of))(NP (NP (DT (the))(T2 (NN (FlgM))))))))))) |ET| 
-1  |BT| (VP (NP (PP (NP (T1 (NN (hag))))))(PP (IN (by))(S (VP (VBG (stimulating))(NP (NP (DT (the))(NN (transcription)))(PP (IN (of))(NP (T2 (NN (comF-flgM)))))))))) |ET| 
1.0129870129870128803162288022577  |BT| (VP (NP (T2 (NNP (cotB)))(NN (transcription)))(PP (IN (by))(NP (T1 (NP (NP (JJ (final))(NN (sigma)))(PRN (-LRB- (<LB>))(NP (NN (K)))(-RRB- (<RB>)))))))) |ET| 
-1  |BT| (NP (NP (PRN (T1 (NP (NN (PBP4))(NN (*))))(-RRB- (<RB>))))(CC (and))(NP (NP (DT (a))(JJ (co-transcribed))(NN (amino))(NN (acid))(NN (racemase)))(PRN (-LRB- (<LB>))(NP (T2 (NN (RacX))))))) |ET| 
0.44723557348152231938342993089464  |BT| (S (NP (T2 (NN (sigB))))(VP (VBZ (is))(ADJP (JJ (similar))(PP (TO (to))(NP (NP (DT (the))(ADJP (RB (previously))(VBN (described)))(NN (gene))(NN (gsiB)))(SBAR (WHNP (WDT (which)))(S (VP (VBZ (is))(ADVP (RB (also)))(NP (NP (DT (a))(NN (member)))(PP (IN (of))(NP (DT (the))(T1 (NN (sigmaB)))))))))))))) |ET| 
-1  |BT| (S (NP (PP (NP (NP (T1 (NN (sigmaK))))(ADJP (NP (QP (RB (about))(CD (1)))(NN (h)))(JJR (earlier))(PP (IN (than))(NP (JJ (normal))))))))(VP (VBZ (does))(VP (VB (affect))(NP (NP (NN (Spo0A)))(, (,))(SBAR (WHNP (WDT (which)))(S (SBAR (WHADVP (WRB (when)))(S (VP (VBN (phosphorylated)))))(VP (VBZ (is))(NP (NP (DT (an))(NN (activator)))(PP (IN (of))(NP (T2 (JJ (sigE))))))))))))) |ET| 
0.068230242231377719042129115223361  |BT| (S (NP (PP (NP (NP (T2 (NN (cotC))))(, (,))(CC (and))(NP (NN (cotX))(NNS (genes)))))(PP (IN (by))(NP (NP (NP (JJ (final))(NN (sigma)))(PRN (-LRB- (<LB>))(NP (NN (K)))(-RRB- (<RB>))))(NN (RNA))(NN (polymerase)))))(VP (VBZ (is))(VP (VBN (activated))(PP (IN (by))(NP (NP (DT (a))(ADJP (ADJP (JJ (small)))(, (,))(ADJP (JJ (DNA-binding))))(NN (protein)))(VP (VBN (called))(S (NP (T1 (NN (GerE))))))))))) |ET| 
-1  |BT| (S (S (NP (NP (T1 (NN (sspL))))(NNS (genes)))(VP (VBP (are))(VP (VBN (recognized))(ADVP (RB (primarily)))(PP (IN (by))(NP (NP (DT (the))(JJ (forespore-specific))(NN (sigma))(NN (factor)))(PP (IN (for))(NP (NP (NN (RNA))(NN (polymerase)))(, (,))(NP (NN (sigmaG))))))))))(: (;))(S (NP (DT (the))(NN (sspN-tlp))(NN (operon)))(VP (VBZ (is))(VP (VBN (recognized))(ADVP (RB (equally))(RB (well)))(PP (IN (by))(NP (NP (T2 (NN (sigmaG)))))))))) |ET| 
1.0129870129870128803162288022577  |BT| (NP (NP (T1 (NN (Spo0A))))(, (,))(SBAR (WHNP (WDT (which)))(S (SBAR (WHADVP (WRB (when)))(S (VP (VBN (phosphorylated)))))(VP (VBZ (is))(NP (NP (DT (an))(NN (activator)))(PP (IN (of))(NP (T2 (JJ (sigE)))))))))) |ET| 
-1  |BT| (NP (NP (NP (T1 (NNP (FlgM))))(, (,))(ADJP (JJ (present))(PP (IN (in))(NP (NP (ADJP (CC (both))(ADJP (JJ (gram-positive)))(CC (and))(ADJP (JJ (gram-negative))))(NNS (bacteria)))(, (,))(SBAR (WHNP (WDT (which)))(S (VP (VBZ (inhibits))(NP (DT (the))(NNS (flagella))(NP (NN (sigma))(NN (factor))(NN (sigma))(CD (28)))))))))))(: (;))(NP (NP (T2 (NNP (SpoIIAB)))))) |ET| 
1.0129870129870128803162288022577  |BT| (S (NP (PP (NP (NP (T1 (NN (sigmaK))))(ADJP (NP (QP (RB (about))(CD (1)))(NN (h)))(JJR (earlier))(PP (IN (than))(NP (JJ (normal))))))))(VP (VBZ (does))(VP (VB (affect))(NP (NP (T2 (NN (Spo0A)))))))) |ET| 
-1  |BT| (S (NP (T1 (NN (SpoIIE))))(VP (VBZ (blocks))(NP (NP (DT (the))(NN (capacity)))(PP (IN (of))(NP (JJ (unphosphorylated))(NN (SpoIIAA))))(S (VP (TO (to))(VP (VB (activate))(NP (T2 (NN (sigmaF)))))))))) |ET| 
1.0129870129870128803162288022577  |BT| (NP (NP (T1 (NNP (SpoIIAB))))(, (,))(SBAR (WHNP (WDT (which)))(S (VP (VBZ (inhibits))(NP (NP (NP (DT (the))(JJ (sporulation-specific))(NN (sigma))(NN (factor)))(, (,))(NP (T2 (NP (NN (sigma))(NN (F))))))))))) |ET| 
-1  |BT| (NP (NP (T1 (NN (ald)))(NN (promoter)))(, (,))(PP (IN (like))(NP (DT (the))(T2 (NN (sigE)))))) |ET| 
1.0129870129870128803162288022577  |BT| (NP (PP (NP (T1 (NN (SpoIIAA)))))(S (VP (TO (to))(VP (VB (activate))(NP (T2 (NN (sigmaF)))))))) |ET| 
-1  |BT| (VP (NP (T1 (NN (cotC)))(NN (transcription)))(, (,))(SBAR (IN (whereas))(S (NP (DT (a))(JJR (higher))(NN (concentration)))(ADVP (RB (only))(RB (partially)))(VP (VP (VBD (repressed))(NP (T2 (NN (cotX))))))))) |ET| 
1.0129870129870128803162288022577  |BT| (S (NP (NP (T2 (NN (sspH)))(CC (and))(NN (sspL)))(NNS (genes)))(VP (VBP (are))(VP (VBN (recognized))(ADVP (RB (primarily)))(PP (IN (by))(NP (NP (DT (the))(JJ (forespore-specific))(NN (sigma))(NN (factor)))(PP (IN (for))(NP (NP (NN (RNA))(NN (polymerase)))(, (,))(NP (T1 (NN (sigmaG))))))))))) |ET| 
-0.012555126865620123977063116171848  |BT| (NP (NP (NP (PRN (T1 (NP (NN (PBP4))(NN (*))))(-RRB- (<RB>))))(CC (and))(NP (NP (DT (a))(JJ (co-transcribed))(NN (amino))(NN (acid))(NN (racemase)))(PRN (-LRB- (<LB>))(NP (NN (RacX)))(-RRB- (<RB>)))))(, (,))(NP (NP (NNS (homologues)))(PP (IN (of))(NP (NP (NN (signal))(NN (peptide))(NN (peptidase)))(PRN (-LRB- (<LB>))(NP (NNP (YteI)))(-RRB- (<RB>))))))(, (,))(NP (NP (NN (flotillin)))(PRN (-LRB- (<LB>))(NP (NN (YuaG)))(-RRB- (<RB>))))(, (,))(NP (NP (NN (ABC))(NNS (transporters)))(PRN (-LRB- (<LB>))(NP (NNP (YknXYZ)))(-RRB- (<RB>))))(, (,))(NP (NP (NN (non-haem))(NN (bromoperoxidase)))(PRN (-LRB- (<LB>))(NP (T2 (NNP (YdjP))))))) |ET| 
1.0129870129870128803162288022577  |BT| (S (NP (NP (T1 (NN (SpoIIID))))(PP (IN (at))(NP (JJ (low))(NN (concentration)))))(VP (VBD (repressed))(NP (NN (cotC))(NN (transcription)))(, (,))(SBAR (IN (whereas))(S (NP (DT (a))(JJR (higher))(NN (concentration)))(ADVP (RB (only))(RB (partially)))(VP (VP (VBD (repressed))(NP (T2 (NN (cotX)))))))))) |ET| 
-1  |BT| (S (NP (PP (NP (T1 (NN (sigE)))(NN (promoter))))(, (,)))(VP (VBZ (is))(VP (VBN (believed))(S (VP (TO (to))(VP (VB (be))(VP (VBN (recognized))(PP (IN (by))(NP (NN (sigmaA))(NN (RNA))(NN (polymerase)))))))))(, (,))(S (VP (VBG (suggesting))(SBAR (IN (that))(S (NP (NN (sigmaK)))(VP (MD (may))(VP (VB (inhibit))(NP (T2 (NN (sigmaA)))))))))))) |ET| 
1.0129870129870128803162288022577  |BT| (NP (NP (T1 (NNP (RbsW))))(PP (IN (of))(NP (NP (FW (B.))(FW (subtilis)))(, (,))(SBAR (WHNP (WDT (which)))(S (VP (VBZ (inhibits))(T2 (NP (NN (stress))(NN (response))(NN (sigma))(NN (factor))(NN (sigma))(NN (B)))))))))) |ET| 
-1  |BT| (NP (NP (SBAR (S (VP (NP (NP (NP (T1 (NP (NN (sigma))(NN (G)))))(, (,)))(PP (IN (of))(NP (FW (Bacillus))(FW (subtilis)))))))))(: (;))(NP (NP (NNP (RbsW)))(PP (IN (of))(NP (NP (FW (B.))(FW (subtilis)))(, (,))(SBAR (WHNP (WDT (which)))(S (VP (VBZ (inhibits))(T2 (NP (NN (stress))(NN (response))(NN (sigma))(NN (factor))(NN (sigma))(NN (B))))))))))) |ET| 
1.0129870129870128803162288022577  |BT| (S (NP (NP (T2 (NN (ald)))(NN (promoter)))(, (,))(PP (IN (like))(NP (DT (the))(NN (sigE))(NN (promoter))))(, (,)))(VP (VBZ (is))(VP (VBN (believed))(S (VP (TO (to))(VP (VB (be))(VP (VBN (recognized))(PP (IN (by))(NP (T1 (NN (sigmaA)))))))))))) |ET| 
-1  |BT| (VP (PP (S (VP (NP (PP (NP (T1 (NN (comF-flgM)))))))))(, (,))(S (ADVP (RB (thereby)))(VP (VBG (increasing))(NP (NP (DT (the))(NN (production)))(PP (IN (of))(NP (NP (DT (the))(T2 (NN (FlgM)))))))))) |ET| 
1.0129870129870128803162288022577  |BT| (S (T1 (NP (NN (sigma))(NN (W))(NN (regulon))))(VP (VBZ (includes))(NP (NP (NP (NP (DT (a))(NN (penicillin))(NN (binding))(NN (protein)))(PRN (-LRB- (<LB>))(T2 (NP (NN (PBP4))(NN (*)))))))))) |ET| 
-1  |BT| (VP (NP (T1 (NNP (cotB)))(NN (transcription)))(PP (IN (by))(NP (NP (NP (JJ (final))(NN (sigma)))(PRN (-LRB- (<LB>))(NP (NN (K)))(-RRB- (<RB>))))(NN (RNA))(NN (polymerase))))(, (,))(SBAR (IN (whereas))(S (NP (DT (a))(JJR (higher))(NN (concentration)))(VP (VBD (was))(VP (VBN (needed))(S (VP (TO (to))(VP (VB (activate))(NP (NP (NN (transcription)))(PP (IN (of))(NP (NP (T2 (NN (cotX))))))))))))))) |ET| 
1.0129870129870128803162288022577  |BT| (S (NP (T1 (NN (SpoIIID))))(VP (VP (VBZ (binds))(ADVP (RB (strongly)))(PP (TO (to))(NP (NP (CD (two))(NNS (sites)))(PP (IN (in))(NP (DT (the))(NN (cotC))(NN (promoter))(NN (region)))))))(, (,))(VP (VBZ (binds))(ADVP (RB (weakly)))(PP (TO (to))(NP (NP (CD (one))(NN (site)))(PP (IN (in))(NP (DT (the))(NN (cotX))(NN (promoter)))))))(, (,))(CC (and))(VP (VBZ (does))(RB (not))(VP (VB (bind))(ADVP (RB (specifically)))(PP (TO (to))(NP (T2 (NNP (cotB))))))))) |ET| 
-1  |BT| (S (NP (NP (PP (NP (SBAR (S (VP (T1 (NP (NN (sigma))(NN (B))))))))))(: (;))(CC (and))(NP (NNP (DnaK))))(, (,))(NP (NP (DT (a))(JJ (general))(NN (regulator)))(PP (IN (of))(NP (NP (DT (the))(NN (heat))(NN (shock))(NN (response)))(, (,))(SBAR (WHNP (WDT (which)))(S (PP (IN (in))(NP (NNS (bacteria))))(VP (VBZ (inhibits))(T2 (NP (DT (the))(NN (heat))(NN (shock))(NN (sigma))(NN (factor))(NN (sigma))(CD (32))))))))))) |ET| 
1.0129870129870128803162288022577  |BT| (S (NP (PP (NP (T1 (NN (GerE))))))(VP (VBD (activated))(NP (NNP (cotB))(NN (transcription)))(PP (IN (by))(NP (NP (NP (JJ (final))(NN (sigma)))(PRN (-LRB- (<LB>))(NP (NN (K)))(-RRB- (<RB>))))(NN (RNA))(NN (polymerase))))(, (,))(SBAR (IN (whereas))(S (NP (DT (a))(JJR (higher))(NN (concentration)))(VP (VBD (was))(VP (VBN (needed))(S (VP (TO (to))(VP (VB (activate))(NP (NP (NN (transcription)))(PP (IN (of))(NP (NP (NN (cotX)))(CC (or))(NP (T2 (NN (cotC)))))))))))))))) |ET| 
-1  |BT| (S (S (NP (PP (NP (T1 (NN (GerE))))))(VP (VBD (activated))(NP (NP (NN (transcription)))(PP (IN (of))(NP (NN (cotD))))(PP (IN (by))(NP (NN (sigmaK))(NN (RNA))(NN (polymerase)))))(ADVP (FW (in))(FW (vitro)))))(, (,))(CC (but))(S (NP (NP (DT (a))(JJR (higher))(NN (level)))(PP (IN (of))(NP (NN (GerE)))))(VP (VBD (repressed))(NP (T2 (NN (cotD))))))) |ET| 
1.0129870129870128803162288022577  |BT| (S (NP (NP (T1 (NNP (DnaK)))))(, (,))(NP (NP (DT (a))(JJ (general))(NN (regulator)))(PP (IN (of))(NP (NP (DT (the))(NN (heat))(NN (shock))(NN (response)))(, (,))(SBAR (WHNP (WDT (which)))(S (PP (IN (in))(NP (NNS (bacteria))))(VP (VBZ (inhibits))(T2 (NP (DT (the))(NN (heat))(NN (shock))(NN (sigma))(NN (factor))(NN (sigma))(CD (32))))))))))) |ET| 
-1  |BT| (S (S (NP (NP (T1 (NN (sspL))))(NNS (genes)))(VP (VBP (are))(VP (VBN (recognized))(ADVP (RB (primarily)))(PP (IN (by))(NP (NP (DT (the))(JJ (forespore-specific))(NN (sigma))(NN (factor)))(PP (IN (for))(NP (NP (NN (RNA))(NN (polymerase)))(, (,))(NP (NN (sigmaG))))))))))(: (;))(S (NP (DT (the))(T2 (NN (sspN-tlp)))))) |ET| 
0.98807748895332392358170636725845  |BT| (S (NP (PP (NP (T1 (NN (GerE))))))(VP (VBD (activated))(NP (NP (NN (transcription)))(PP (IN (of))(NP (NN (cotD))))(PP (IN (by))(NP (T2 (NN (sigmaK)))))))) |ET| 
-1  |BT| (NP (T1 (NN (sspH)))(CC (and))(T2 (NN (sspL)))) |ET| 
1.0129870129870128803162288022577  |BT| (S (NP (T2 (NN (sigmaF))))(VP (VBZ (is))(VP (VBN (controlled))(PP (IN (by))(NP (NP (DT (a))(JJ (regulatory))(NN (cascade)))(VP (VBG (involving))(NP (NP (NP (DT (an))(NN (anti-sigma))(NN (factor)))(, (,))(NP (NNP (SpoIIAB))(, (,))(NP (DT (an))(NN (anti-anti-sigma))(NN (factor))(, (,))(T1 (NN (SpoIIAA))))))))))))) |ET| 
-1  |BT| (S (NP (T1 (NN (sigmaF))))(VP (VBZ (is))(VP (VBN (controlled))(PP (IN (by))(NP (NP (DT (a))(JJ (regulatory))(NN (cascade)))(VP (VBG (involving))(NP (NP (NP (DT (an))(NN (anti-sigma))(NN (factor)))(, (,))(NP (NNP (SpoIIAB))(, (,))(NP (DT (an))(NN (anti-anti-sigma))(NN (factor))(, (,))(NN (SpoIIAA))(, (,))(CC (and))(NP (DT (a))(JJ (membrane-bound))(NN (phosphatase))))(, (,))(NP (NNP (SpoIIE))))(, (,)))(SBAR (WHNP (WDT (which)))(S (VP (VBZ (converts))(NP (NP (DT (the))(ADJP (ADJP (JJ (inactive)))(, (,))(ADJP (JJ (phosphorylated))))(NN (form)))(PP (IN (of))(NP (T2 (NN (SpoIIAA)))))))))))))))) |ET| 
1.0129870129870128803162288022577  |BT| (NP (NP (ADJP (ADJP (T1 (JJ (sigmaB-))))(CC (and))(ADJP (JJ (sigmaF-dependent))))(NNS (promoters)))(PP (IN (of))(NP (T2 (NN (katX)))))) |ET| 
-1  |BT| (S (NP (T1 (NN (ComK))))(ADVP (RB (negatively)))(VP (VBZ (controls))(NP (NP (DT (the))(NN (transcription)))(PP (IN (of))(NP (NN (hag)))))(PP (IN (by))(S (VP (VBG (stimulating))(NP (NP (DT (the))(NN (transcription)))(PP (IN (of))(NP (NN (comF-flgM))))))))(, (,))(S (ADVP (RB (thereby)))(VP (VBG (increasing))(NP (NP (DT (the))(NN (production)))(PP (IN (of))(NP (NP (DT (the))(NN (FlgM))(NN (antisigma))(NN (factor)))(SBAR (WHNP (WDT (that)))(S (VP (VBZ (inhibits))(NP (T2 (NN (sigmaD)))))))))))))) |ET| 
1.0129870129870128803162288022577  |BT| (S (NP (T2 (NN (sigmaF))))(VP (VBZ (is))(VP (VBN (controlled))(PP (IN (by))(NP (NP (DT (a))(JJ (regulatory))(NN (cascade)))(VP (VBG (involving))(NP (NP (NP (DT (an))(NN (anti-sigma))(NN (factor)))(, (,))(NP (NNP (SpoIIAB))(, (,))(NP (DT (an))(NN (anti-anti-sigma))(NN (factor))(, (,))(NN (SpoIIAA))(, (,))(CC (and))(NP (DT (a))(JJ (membrane-bound))(NN (phosphatase))))(, (,))(NP (T1 (NNP (SpoIIE))))))))))))) |ET| 
-0.76798839948677199984672370192129  |BT| (NP (NP (NP (T1 (NNP (SpoIIAB)))(, (,))(NP (DT (an))(NN (anti-anti-sigma))(NN (factor))(, (,))(NN (SpoIIAA))(, (,))(CC (and))(NP (DT (a))(JJ (membrane-bound))(NN (phosphatase))))(, (,))(NP (NNP (SpoIIE))))(, (,)))(SBAR (WHNP (WDT (which)))(S (VP (VBZ (converts))(NP (NP (DT (the))(ADJP (ADJP (JJ (inactive)))(, (,))(ADJP (JJ (phosphorylated))))(NN (form)))(PP (IN (of))(NP (T2 (NN (SpoIIAA)))))))))) |ET| 
1.0129870129870128803162288022577  |BT| (S (NP (T1 (NN (ComK))))(ADVP (RB (negatively)))(VP (VBZ (controls))(NP (NP (DT (the))(NN (transcription)))(PP (IN (of))(NP (NN (hag)))))(PP (IN (by))(S (VP (VBG (stimulating))(NP (NP (DT (the))(NN (transcription)))(PP (IN (of))(NP (T2 (NN (comF-flgM))))))))))) |ET| 
-1  |BT| (S (NP (VP (NP (PP (NP (NP (NP (T1 (NN (sigmaH)))))(NNS (regulons))))))(, (,)))(VP (MD (might))(ADVP (RB (negatively)))(VP (VB (regulate))(NP (NP (DT (the))(NN (activity)))(PP (IN (of))(NP (DT (the))(T2 (JJ (sigmaL))))))))) |ET| 
1.0129870129870128803162288022577  |BT| (NP (NP (T1 (NN (FlgM)))(NN (antisigma))(NN (factor)))(SBAR (WHNP (WDT (that)))(S (VP (VBZ (inhibits))(NP (T2 (NN (sigmaD)))))))) |ET| 
-1  |BT| (VP (NP (T1 (NN (degR)))(NN (expression)))(PP (IN (by))(S (VP (VBG (preventing))(NP (NP (T2 (NN (sigmaD-driven))))))))) |ET| 
1.0129870129870128803162288022577  |BT| (S (NP (NP (T1 (NN (yvyD)))(NN (gene))(NN (product)))(, (,))(VP (VBG (being))(NP (NP (DT (a))(NN (member)))(PP (IN (of))(NP (CC (both))(DT (the))(NP (NP (NN (sigmaB)))(CC (and))(NP (NN (sigmaH))))(NNS (regulons))))))(, (,)))(VP (MD (might))(ADVP (RB (negatively)))(VP (VB (regulate))(NP (NP (DT (the))(NN (activity)))(PP (IN (of))(NP (DT (the))(T2 (JJ (sigmaL))))))))) |ET| 
-1  |BT| (NP (NP (NP (PRN (T1 (NP (NN (PBP4))(NN (*))))(-RRB- (<RB>))))(CC (and))(NP (NP (DT (a))(JJ (co-transcribed))(NN (amino))(NN (acid))(NN (racemase)))(PRN (-LRB- (<LB>))(NP (NN (RacX)))(-RRB- (<RB>)))))(, (,))(NP (NP (NNS (homologues)))(PP (IN (of))(NP (NP (NN (signal))(NN (peptide))(NN (peptidase)))(PRN (-LRB- (<LB>))(NP (T2 (NNP (YteI))))))))) |ET| 
1.0129870129870128803162288022577  |BT| (S (NP (T1 (NN (sigmaK))))(VP (MD (may))(VP (VB (inhibit))(NP (T2 (NN (sigmaA))))))) |ET| 
-1  |BT| (S (NP (SBAR (S (VP (NP (PP (NP (T1 (NN (SpoIIE)))))))))(, (,)))(VP (VP (VBZ (depends))(PP (IN (on))(NP (DT (the))(NP (NN (cell))(NN (division)))(NN (protein))(NN (FtsZ)))))(CC (and))(VP (MD (could))(VP (VB (correspond))(PP (TO (to))(NP (NP (DT (the))(JJ (FtsZ-dependent))(NN (assembly)))(PP (IN (of))(NP (T2 (NN (SpoIIE))))))))))) |ET| 
1.0129870129870128803162288022577  |BT| (S (T1 (NP (NN (sigma))(NN (W))(NN (regulon))))(VP (VBZ (includes))(NP (NP (NP (NP (DT (a))(NN (penicillin))(NN (binding))(NN (protein)))(PRN (-LRB- (<LB>))(NP (NN (PBP4))(NN (*)))(-RRB- (<RB>))))(CC (and))(NP (NP (DT (a))(JJ (co-transcribed))(NN (amino))(NN (acid))(NN (racemase)))(PRN (-LRB- (<LB>))(NP (NN (RacX)))(-RRB- (<RB>)))))(, (,))(NP (NP (NNS (homologues)))(PP (IN (of))(NP (NP (NN (signal))(NN (peptide))(NN (peptidase)))(PRN (-LRB- (<LB>))(NP (NNP (YteI)))(-RRB- (<RB>))))))(, (,))(NP (NP (NN (flotillin)))(PRN (-LRB- (<LB>))(NP (T2 (NN (YuaG))))))))) |ET| 
-1  |BT| (NP (NP (NP (PRN (T1 (NP (NN (PBP4))(NN (*))))(-RRB- (<RB>))))(CC (and))(NP (NP (DT (a))(JJ (co-transcribed))(NN (amino))(NN (acid))(NN (racemase)))(PRN (-LRB- (<LB>))(NP (NN (RacX)))(-RRB- (<RB>)))))(, (,))(NP (NP (NNS (homologues)))(PP (IN (of))(NP (NP (NN (signal))(NN (peptide))(NN (peptidase)))(PRN (-LRB- (<LB>))(NP (NNP (YteI)))(-RRB- (<RB>))))))(, (,))(NP (NP (NN (flotillin)))(PRN (-LRB- (<LB>))(NP (NN (YuaG)))(-RRB- (<RB>))))(, (,))(NP (NP (NN (ABC))(NNS (transporters)))(PRN (-LRB- (<LB>))(NP (NNP (YknXYZ)))(-RRB- (<RB>))))(, (,))(NP (NP (NN (non-haem))(NN (bromoperoxidase)))(PRN (-LRB- (<LB>))(NP (NNP (YdjP)))(-RRB- (<RB>))))(, (,))(NP (NP (NN (epoxide))(NN (hydrolase)))(PRN (-LRB- (<LB>))(NP (T2 (NNP (YfhM))))))) |ET| 
1.0129870129870128803162288022577  |BT| (S (NP (SBAR (S (VP (NP (PP (NP (T2 (NN (SpoIIE)))))))))(, (,)))(VP (VP (VBZ (depends))(PP (IN (on))(NP (DT (the))(NP (NN (cell))(NN (division)))(NN (protein))(T1 (NN (FtsZ)))))))) |ET| 
-0.96186061777745046619259028375382  |BT| (S (NP (PP (NP (T1 (NN (gerE))))))(VP (VBZ (initiates))(NP (NP (DT (a))(JJ (negative))(NN (feedback))(NN (loop)))(SBAR (WHPP (IN (in))(WHNP (WDT (which))))(S (NP (T2 (NN (GerE))))))))) |ET| 
1.0129870129870128803162288022577  |BT| (S (T1 (NP (NN (sigma))(NN (W))(NN (regulon))))(VP (VBZ (includes))(NP (NP (NP (NP (DT (a))(NN (penicillin))(NN (binding))(NN (protein)))(PRN (-LRB- (<LB>))(NP (NN (PBP4))(NN (*)))(-RRB- (<RB>))))(CC (and))(NP (NP (DT (a))(JJ (co-transcribed))(NN (amino))(NN (acid))(NN (racemase)))(PRN (-LRB- (<LB>))(NP (NN (RacX)))(-RRB- (<RB>)))))(, (,))(NP (NP (NNS (homologues)))(PP (IN (of))(NP (NP (NN (signal))(NN (peptide))(NN (peptidase)))(PRN (-LRB- (<LB>))(NP (NNP (YteI)))(-RRB- (<RB>))))))(, (,))(NP (NP (NN (flotillin)))(PRN (-LRB- (<LB>))(NP (NN (YuaG)))(-RRB- (<RB>))))(, (,))(NP (NP (NN (ABC))(NNS (transporters)))(PRN (-LRB- (<LB>))(NP (NNP (YknXYZ)))(-RRB- (<RB>))))(, (,))(NP (NP (NN (non-haem))(NN (bromoperoxidase)))(PRN (-LRB- (<LB>))(NP (NNP (YdjP)))(-RRB- (<RB>))))(, (,))(NP (NP (NN (epoxide))(NN (hydrolase)))(PRN (-LRB- (<LB>))(NP (T2 (NNP (YfhM))))))))) |ET| 
-1  |BT| (S (NP (NP (T1 (NN (ald)))(NN (promoter)))(, (,))(PP (IN (like))(NP (DT (the))(NN (sigE))(NN (promoter))))(, (,)))(VP (VBZ (is))(VP (VBN (believed))(S (VP (TO (to))(VP (VB (be))(VP (VBN (recognized))(PP (IN (by))(NP (NN (sigmaA))(NN (RNA))(NN (polymerase)))))))))(, (,))(S (VP (VBG (suggesting))(SBAR (IN (that))(S (NP (NN (sigmaK)))(VP (MD (may))(VP (VB (inhibit))(NP (T2 (NN (sigmaA)))))))))))) |ET| 
1.0129870129870128803162288022577  |BT| (S (NP (PP (NP (T2 (NNS (sigmaF)))))(PP (IN (during))(NP (NP (NN (sporulation)))(PP (IN (in))(NP (FW (Bacillus))(FW (subtilis)))))))(VP (VBZ (requires))(NP (NP (NP (DT (the))(NN (formation)))(PP (IN (of))(NP (DT (the))(JJ (polar))(NN (septum)))))(CC (and))(NP (NP (DT (the))(NN (activity)))(PP (IN (of))(NP (NP (NP (DT (a))(NN (serine))(NN (phosphatase)))(PRN (-LRB- (<LB>))(NP (T1 (NN (SpoIIE)))))))))))) |ET| 
-1  |BT| (NP (NP (T1 (NN (sigmaB))))(CC (or))(NP (NP (DT (a))(NN (class))(CD (III))(NN (stress))(NN (induction))(NN (mechanism)))(VP (VBG (acting))(PP (IN (at))(NP (DT (a))(T2 (JJ (sigmaA-like)))))))) |ET| 
1.0129870129870128803162288022577  |BT| (S (NP (PP (NP (NP (T2 (NN (sigE)))(NN (gene)))(, (,))(VP (VBG (encoding))(NP (NP (DT (the))(JJ (earlier-acting))(NN (sigma))(NN (factor)))(, (,))(NP (NN (sigmaE)))(, (,)))))))(VP (VBZ (is))(ADVP (RB (negatively)))(VP (VBN (regulated))(PP (IN (by))(NP (NP (DT (the))(JJ (later-acting))(NN (sigma))(NN (factor)))(, (,))(NP (T1 (NN (sigmaK))))))))) |ET| 
-1  |BT| (S (NP (T1 (NN (CtsR)))(NN (protein)))(VP (VP (VBZ (acts))(PP (IN (as))(NP (NP (DT (a))(JJ (global))(NN (repressor)))(PP (IN (of))(NP (NP (DT (the))(NN (clpC))(NN (operon)))(, (,))(CONJP (RB (as))(RB (well))(IN (as)))(NP (JJ (other))(NN (class))(CD (III))(NN (heat))(NN (shock))(NNS (genes)))(, (,))))))(PP (IN (by))(S (VP (VBG (preventing))(NP (NP (JJ (unstressed))(NN (transcription)))(PP (IN (from))(NP (CC (either))(DT (the))(ADJP (ADJP (T2 (JJ (sigmaB-)))))))))))))) |ET| 
1.0129870129870128803162288022577  |BT| (S (NP (T2 (NN (clpC)))(NN (operon)))(VP (VBZ (is))(VP (VBN (regulated))(PP (IN (by))(NP (NP (CD (two))(NN (stress))(NN (induction))(NNS (pathways)))(VP (VBG (relying))(PP (IN (on))(NP (CC (either))(NP (NN (sigmaB)))(CC (or))(NP (NP (DT (a))(NN (class))(CD (III))(NN (stress))(NN (induction))(NN (mechanism)))(VP (VBG (acting))(PP (IN (at))(NP (DT (a))(T1 (JJ (sigmaA-like))))))))))))))) |ET| 
-1  |BT| (NP (NP (PP (NP (T1 (NN (GerE))))))(CC (and))(NP (NP (DT (another))(NN (transcription))(NN (factor)))(, (,))(NP (T2 (NN (SpoIIID)))))) |ET| 
1.0129870129870128803162288022577  |BT| (VP (PP (NP (PP (NP (NP (T2 (NN (clpC)))(NN (operon)))(, (,))(CONJP (RB (as))(RB (well))(IN (as)))(NP (JJ (other))(NN (class))(CD (III))(NN (heat))(NN (shock))(NNS (genes)))(, (,))))))(PP (IN (by))(S (VP (VBG (preventing))(NP (NP (JJ (unstressed))(NN (transcription)))(PP (IN (from))(NP (CC (either))(DT (the))(ADJP (ADJP (T1 (JJ (sigmaB-)))))))))))) |ET| 
-1  |BT| (VP (VP (PP (NP (PP (NP (T1 (NN (cotC)))(NN (promoter))(NN (region)))))))(, (,))(VP (VBZ (binds))(ADVP (RB (weakly)))(PP (TO (to))(NP (NP (CD (one))(NN (site)))(PP (IN (in))(NP (DT (the))(T2 (NN (cotX))))))))) |ET| 
1.0129870129870128803162288022577  |BT| (ADJP (PP (NP (T1 (NN (ClpX-dependent)))(NN (stimulation))))(SBAR (IN (than))(S (NP (T2 (NN (sigmaA-RNAP))))))) |ET| 
-0.79105488256209988140454925087397  |BT| (ADJP (ADJP (T1 (JJ (sigmaB-))))(CC (and))(ADJP (T2 (JJ (sigmaF-dependent))))) |ET| 
1.0129870129870128803162288022577  |BT| (S (NP (T1 (NN (SpoIIID))))(VP (VP (VBZ (binds))(ADVP (RB (strongly)))(PP (TO (to))(NP (NP (CD (two))(NNS (sites)))(PP (IN (in))(NP (DT (the))(NN (cotC))(NN (promoter))(NN (region)))))))(, (,))(VP (VBZ (binds))(ADVP (RB (weakly)))(PP (TO (to))(NP (NP (CD (one))(NN (site)))(PP (IN (in))(NP (DT (the))(T2 (NN (cotX)))))))))) |ET| 
-1  |BT| (S (S (NP (T1 (JJ (sigmaB-dependent)))(NN (promoter)))(VP (VBZ (drives))(NP (NP (NN (expression)))(PP (IN (of))(NP (NN (yvyD))))(PP (PP (IN (under))(NP (NN (stress))(NNS (conditions))))(CC (and))(PP (IN (after))(NP (NN (glucose))(NN (starvation))))))))(, (,))(IN (whereas))(S (NP (DT (a))(JJ (sigmaH-dependent))(NN (promoter)))(VP (VBZ (is))(ADJP (JJ (responsible))(PP (IN (for))(NP (NP (T2 (NN (yvyD)))))))))) |ET| 
1.0129870129870128803162288022577  |BT| (NP (NP (NP (NP (T1 (NNP (SpoIIE)))))(, (,)))(SBAR (WHNP (WDT (which)))(S (VP (VBZ (converts))(NP (NP (DT (the))(ADJP (ADJP (JJ (inactive)))(, (,))(ADJP (JJ (phosphorylated))))(NN (form)))(PP (IN (of))(NP (T2 (NN (SpoIIAA)))))))))) |ET| 
-1  |BT| (NP (NP (NP (NP (T1 (NN (SpoIIAA)))(, (,))(CC (and))(NP (DT (a))(JJ (membrane-bound))(NN (phosphatase))))(, (,))(NP (NNP (SpoIIE))))(, (,)))(SBAR (WHNP (WDT (which)))(S (VP (VBZ (converts))(NP (NP (DT (the))(ADJP (ADJP (JJ (inactive)))(, (,))(ADJP (JJ (phosphorylated))))(NN (form)))(PP (IN (of))(NP (T2 (NN (SpoIIAA)))))))))) |ET| 
1.0129870129870128803162288022577  |BT| (S (NP (NP (T2 (NN (YtxH))))(CC (and))(NP (NN (YvyD))))(VP (VBD (seemed))(S (VP (TO (to))(VP (VB (be))(VP (VBN (induced))(PP (IN (after))(NP (NN (phosphate))(NN (starvation))))(PP (PP (IN (in))(NP (NP (DT (the))(JJ (wild))(NN (type)))(PP (IN (in))(NP (DT (a))(ADJP (NN (sigma))(-LRB- (<LB>))(NN (B))(-RRB- (<RB>))(JJ (-dependent)))(NN (manner))))))(CC (and))(PP (IN (in))(NP (DT (the))(NN (sigB))(NN (mutant)))))(PP (ADVP (RB (probably)))(IN (via))(T1 (NP (NP (NN (sigma)))(PRN (-LRB- (<LB>))(NP (NN (H)))(-RRB- (<RB>)))))))))))) |ET| 
-1  |BT| (VP (PP (PP (NP (PP (NP (T1 (ADJP (NN (sigma))(-LRB- (<LB>))(NN (B))(-RRB- (<RB>))(JJ (-dependent))))(NN (manner))))))(CC (and))(PP (IN (in))(NP (DT (the))(NN (sigB))(NN (mutant)))))(PP (ADVP (RB (probably)))(IN (via))(T2 (NP (NP (NN (sigma)))(PRN (-LRB- (<LB>))(NP (NN (H)))(-RRB- (<RB>))))))) |ET| 
1.0129870129870128803162288022577  |BT| (S (NP (NP (ADJP (T2 (JJ (cot))))(NNS (genes)))(, (,))(CC (and))(NP (DT (the))(NN (gerE))(NN (gene)))(, (,)))(VP (VBP (are))(VP (VBN (transcribed))(PP (IN (by))(NP (T1 (NN (sigmaK)))))))) |ET| 
-1  |BT| (VP (VP (VP (NP (PP (NP (NP (NP (T1 (NN (tagD)))))(NNS (promoters)))))))(CC (and))(VP (ADVP (RB (also)))(TO (to))(VP (VB (activate))(NP (NP (DT (the))(NN (transcription)))(PP (IN (of))(NP (DT (the))(T2 (NN (tuaA))))))))) |ET| 
1.0129870129870128803162288022577  |BT| (NP (T1 (NP (NN (sigma))(-LRB- (<LB>))(NN (A))(-RRB- (<RB>))(NN (-RNA))(NN (polymerase))))(PP (IN (from))(NP (DT (the))(JJ (Spo0A-dependent))(T2 (NN (spoIIG)))))) |ET| 
-1  |BT| (S (NP (NP (NP (T1 (NNP (RbsW))))(PP (IN (of))(NP (NP (FW (B.))(FW (subtilis)))(, (,))(SBAR (WHNP (WDT (which)))(S (VP (VBZ (inhibits))(NP (NN (stress))(NN (response))(NN (sigma))(NN (factor))(NN (sigma))(NN (B)))))))))(: (;))(CC (and))(NP (NNP (DnaK))))(, (,))(NP (NP (DT (a))(JJ (general))(NN (regulator)))(PP (IN (of))(NP (NP (DT (the))(NN (heat))(NN (shock))(NN (response)))(, (,))(SBAR (WHNP (WDT (which)))(S (PP (IN (in))(NP (NNS (bacteria))))(VP (VBZ (inhibits))(T2 (NP (DT (the))(NN (heat))(NN (shock))(NN (sigma))(NN (factor))(NN (sigma))(CD (32))))))))))) |ET| 
1.0129870129870128803162288022577  |BT| (S (NP (T1 (NN (PhoP~P))))(VP (VBZ (is))(ADJP (JJ (sufficient))(S (VP (VP (TO (to))(VP (VB (repress))(NP (NP (DT (the))(NN (transcription)))(PP (IN (of))(NP (DT (the))(NP (NP (NN (tagA)))(CC (and))(NP (NN (tagD))))(NNS (promoters)))))))(CC (and))(VP (ADVP (RB (also)))(TO (to))(VP (VB (activate))(NP (NP (DT (the))(NN (transcription)))(PP (IN (of))(NP (DT (the))(T2 (NN (tuaA))))))))))))) |ET| 
-1  |BT| (VP (NP (T1 (NNP (cotB)))(NN (transcription)))(PP (IN (by))(NP (NP (NP (JJ (final))(NN (sigma)))(PRN (-LRB- (<LB>))(NP (NN (K)))(-RRB- (<RB>))))(NN (RNA))(NN (polymerase))))(, (,))(SBAR (IN (whereas))(S (NP (DT (a))(JJR (higher))(NN (concentration)))(VP (VBD (was))(VP (VBN (needed))(S (VP (TO (to))(VP (VB (activate))(NP (NP (NN (transcription)))(PP (IN (of))(NP (NP (NN (cotX)))(CC (or))(NP (T2 (NN (cotC))))))))))))))) |ET| 
1.0129870129870128803162288022577  |BT| (NP (NP (T1 (ADJP (NN (sigma))(-LRB- (<LB>))(NN (H))(-RRB- (<RB>))(JJ (-dependent))))(NN (expression)))(PP (IN (of))(NP (NP (NN (spo0A)))(CC (and))(NP (T2 (NN (spoVG))))))) |ET| 
-0.93657002814917256205973217220162  |BT| (NP (NP (ADJP (T1 (JJ (cot))))(NNS (genes)))(, (,))(CC (and))(NP (DT (the))(T2 (NN (gerE))))) |ET| 
1.0129870129870128803162288022577  |BT| (S (NP (PP (NP (T1 (NN (GerE))))))(VP (VBD (activated))(NP (NNP (cotB))(NN (transcription)))(PP (IN (by))(NP (NP (NP (JJ (final))(NN (sigma)))(PRN (-LRB- (<LB>))(NP (NN (K)))(-RRB- (<RB>))))(NN (RNA))(NN (polymerase))))(, (,))(SBAR (IN (whereas))(S (NP (DT (a))(JJR (higher))(NN (concentration)))(VP (VBD (was))(VP (VBN (needed))(S (VP (TO (to))(VP (VB (activate))(NP (NP (NN (transcription)))(PP (IN (of))(NP (NP (T2 (NN (cotX)))))))))))))))) |ET| 
-1  |BT| (VP (NP (PP (NP (T1 (NN (hag))))))(PP (IN (by))(S (VP (VBG (stimulating))(NP (NP (DT (the))(NN (transcription)))(PP (IN (of))(NP (T2 (NN (comF-flgM)))))))))) |ET| 
1.0129870129870128803162288022577  |BT| (NP (NP (T1 (JJ (sigmaB-dependent)))(NNS (genes)))(PRN (-LRB- (<LB>))(NP (NP (NN (ydaE)))(, (,))(NP (NN (ydaG)))(CC (and))(NP (T2 (NN (yfkM))))))) |ET| 
-1  |BT| (NP (T1 (NP (NP (NN (sigma)))(PRN (-LRB- (<LB>))(NP (NN (F)))(-RRB- (<RB>)))))(CC (and))(T2 (NP (NP (NN (sigma)))(PRN (-LRB- (<LB>))(NP (NN (G)))(-RRB- (<RB>)))))) |ET| 
1.0129870129870128803162288022577  |BT| (S (NP (T1 (NN (ComK))))(ADVP (RB (negatively)))(VP (VBZ (controls))(NP (NP (DT (the))(NN (transcription)))(PP (IN (of))(NP (NN (hag)))))(PP (IN (by))(S (VP (VBG (stimulating))(NP (NP (DT (the))(NN (transcription)))(PP (IN (of))(NP (T2 (NN (comF-flgM))))))))))) |ET| 
-1  |BT| (NP (NP (T1 (NN (ydaE))))(, (,))(NP (T2 (NN (ydaG))))) |ET| 
1.0129870129870128803162288022577  |BT| (VP (NP (T2 (NN (sigmaF))))(PP (IN (by))(S (VP (VBG (dephosphorylating))(NP (NP (NP (DT (a))(NN (protein)))(PRN (-LRB- (<LB>))(NP (T1 (NN (SpoIIAA-P))))))))))) |ET| 
-1  |BT| (VP (NP (T1 (NN (degR)))(NN (expression)))(PP (IN (by))(S (VP (VBG (preventing))(NP (NP (NN (sigmaD-driven))(NN (transcription)))(PP (IN (of))(NP (T2 (NN (degR)))))))))) |ET| 
1.0129870129870128803162288022577  |BT| (NP (PP (NP (NP (T2 (NNP (cotB)))(, (,))(NN (cotC)))(, (,))(CC (and))(NP (NN (cotX))(NNS (genes)))))(PP (IN (by))(NP (T1 (NP (NP (JJ (final))(NN (sigma)))(PRN (-LRB- (<LB>))(NP (NN (K)))(-RRB- (<RB>)))))))) |ET| 
-0.86325173866696269797671448031906  |BT| (VP (PP (NP (T1 (NP (NP (NN (sigma)))(PRN (-LRB- (<LB>))(NP (NN (K)))(-RRB- (<RB>)))))(NN (RNA))(NN (polymerase))))(, (,))(SBAR (IN (whereas))(S (NP (DT (a))(JJR (higher))(NN (concentration)))(VP (VBD (was))(VP (VBN (needed))(S (VP (TO (to))(VP (VB (activate))(NP (NP (NN (transcription)))(PP (IN (of))(NP (NP (NN (cotX)))(CC (or))(NP (T2 (NN (cotC))))))))))))))) |ET| 
1.0129870129870128803162288022577  |BT| (NP (NP (T1 (NN (sigmaD-driven)))(NN (transcription)))(PP (IN (of))(NP (T2 (NN (degR)))))) |ET| 
-1  |BT| (S (NP (VP (NP (PP (NP (NP (NP (T1 (NN (sigmaB))))(CC (and))(NP (NN (sigmaH))))(NNS (regulons))))))(, (,)))(VP (MD (might))(ADVP (RB (negatively)))(VP (VB (regulate))(NP (NP (DT (the))(NN (activity)))(PP (IN (of))(NP (DT (the))(T2 (JJ (sigmaL))))))))) |ET| 
1.0129870129870128803162288022577  |BT| (S (NP (T2 (JJ (sspG)))(NN (transcription)))(ADVP (RB (also)))(VP (VBZ (requires))(NP (DT (the))(NN (DNA))(NN (binding))(NN (protein))(T1 (NN (GerE)))))) |ET| 
-0.9649426836581346256238589376153  |BT| (VP (VP (NP (T1 (NN (cotX)))(NN (transcription))))(CC (and))(VP (VBD (had))(NP (JJ (little))(NN (effect)))(PP (IN (on))(NP (T2 (NNP (cotB))))))) |ET| 
1.0129870129870128803162288022577  |BT| (S (NP (T1 (NN (GerE))))(VP (VBZ (acts))(PP (IN (as))(NP (DT (a))(NN (repressor))))(S (VP (TO (to))(VP (VB (limit))(NP (NP (NN (production)))(PP (IN (of))(NP (T2 (NN (sigmaK))))))))))) |ET| 
-1  |BT| (S (NP (PP (NP (T1 (NN (gerE))))))(VP (VBZ (initiates))(NP (NP (DT (a))(JJ (negative))(NN (feedback))(NN (loop)))(SBAR (WHPP (IN (in))(WHNP (WDT (which))))(S (NP (NN (GerE)))(VP (VBZ (acts))(PP (IN (as))(NP (DT (a))(NN (repressor))))(S (VP (TO (to))(VP (VB (limit))(NP (NP (NN (production)))(PP (IN (of))(NP (T2 (NN (sigmaK))))))))))))))) |ET| 
1.0129870129870128803162288022577  |BT| (S (NP (NP (T1 (NN (SpoIIID))))(PP (IN (at))(NP (JJ (low))(NN (concentration)))))(VP (VBD (repressed))(NP (NN (cotC))(NN (transcription)))(, (,))(SBAR (IN (whereas))(S (NP (DT (a))(JJR (higher))(NN (concentration)))(ADVP (RB (only))(RB (partially)))(VP (VP (VBD (repressed))(NP (NN (cotX))(NN (transcription))))(CC (and))(VP (VBD (had))(NP (JJ (little))(NN (effect)))(PP (IN (on))(NP (T2 (NNP (cotB))))))))))) |ET| 
-1  |BT| (VP (NP (T1 (NN (cotC)))(NN (transcription)))(, (,))(SBAR (IN (whereas))(S (NP (DT (a))(JJR (higher))(NN (concentration)))(ADVP (RB (only))(RB (partially)))(VP (VP (VBD (repressed))(NP (NN (cotX))(NN (transcription))))(CC (and))(VP (VBD (had))(NP (JJ (little))(NN (effect)))(PP (IN (on))(NP (T2 (NNP (cotB)))))))))) |ET| 
1.0129870129870128803162288022577  |BT| (S (NP (NP (T1 (NP (NP (NN (sigma)))(PRN (-LRB- (<LB>))(NP (NN (A)))(-RRB- (<RB>)))))(CC (and))(NP (NP (NN (sigma)))(PRN (-LRB- (<LB>))(NP (NN (X)))(-RRB- (<RB>)))))(NNS (holoenzymes)))(VP (VBP (recognize))(NP (NP (NN (promoter))(NNS (elements)))(PP (IN (within))(NP (DT (the))(T2 (NN (sigX-ypuN)))))))) |ET| 
-1  |BT| (NP (NP (PP (NP (PRN (NP (T1 (NNP (YteI))))(-RRB- (<RB>))))))(, (,))(NP (NP (NN (flotillin)))(PRN (-LRB- (<LB>))(NP (T2 (NN (YuaG))))))) |ET| 
1.0129870129870128803162288022577  |BT| (S (NP (NP (T2 (NN (rocG)))(NN (gene)))(PP (IN (of))(NP (FW (Bacillus))(FW (subtilis))))(, (,))(VP (VBG (encoding))(NP (DT (a))(JJ (catabolic))(NN (glutamate))(NN (dehydrogenase))))(, (,)))(VP (VP (VBZ (is))(VP (VBN (transcribed))(PP (IN (by))(NP (JJ (SigL-containing))(NN (RNA))(NN (polymerase))))))(CC (and))(VP (VBZ (requires))(PP (IN (for))(NP (NP (PRP$ (its))(NN (expression))(T1 (NN (RocR))))))))) |ET| 
-1  |BT| (S (S (NP (PP (NP (T1 (NN (GerE))))))(VP (VBD (activated))(NP (NP (NN (transcription)))(PP (IN (of))(NP (NN (cotD))))(PP (IN (by))(NP (NN (sigmaK))(NN (RNA))(NN (polymerase)))))(ADVP (FW (in))(FW (vitro)))))(, (,))(CC (but))(S (NP (NP (DT (a))(JJR (higher))(NN (level)))(PP (IN (of))(NP (T2 (NN (GerE)))))))) |ET| 
1.0129870129870128803162288022577  |BT| (S (PP (S (VP (NP (PP (NP (T2 (NN (phrC)))))))))(, (,))(NP (T1 (NN (sigmaH))))) |ET| 
-1  |BT| (S (S (VP (VP (PP (NP (PP (NP (NP (T1 (NN (sigmaG)))))))))))(: (;))(S (NP (DT (the))(NN (sspN-tlp))(NN (operon)))(VP (VBZ (is))(VP (VBN (recognized))(ADVP (RB (equally))(RB (well)))(PP (IN (by))(NP (NP (T2 (NN (sigmaG)))))))))) |ET| 
1.0129870129870128803162288022577  |BT| (S (NP (PP (NP (T2 (NN (cot)))(NN (gene))(NN (expression)))))(VP (VBZ (results))(PP (IN (from))(NP (NP (NP (DT (the))(JJ (combined))(NN (action)))(PP (IN (of))(NP (NN (GerE)))))(CC (and))(NP (NP (DT (another))(NN (transcription))(NN (factor)))(, (,))(NP (T1 (NN (SpoIIID))))))))) |ET| 
-1  |BT| (S (NP (T1 (NN (CtsR)))(NN (protein)))(VP (VP (VBZ (acts))(PP (IN (as))(NP (NP (DT (a))(JJ (global))(NN (repressor)))(PP (IN (of))(NP (NP (DT (the))(NN (clpC))(NN (operon)))(, (,))(CONJP (RB (as))(RB (well))(IN (as)))(NP (JJ (other))(NN (class))(CD (III))(NN (heat))(NN (shock))(NNS (genes)))(, (,))))))(PP (IN (by))(S (VP (VBG (preventing))(NP (NP (JJ (unstressed))(NN (transcription)))(PP (IN (from))(NP (CC (either))(DT (the))(ADJP (ADJP (JJ (sigmaB-)))(CC (or))(ADJP (T2 (JJ (sigmaA-dependent)))))))))))))) |ET| 
0.40980832466882383124939792651276  |BT| (S (NP (T2 (NN (sspN-tlp)))(NN (operon)))(VP (VBZ (is))(VP (VBN (recognized))(ADVP (RB (equally))(RB (well)))(PP (IN (by))(NP (NP (T1 (NN (sigmaG))))))))) |ET| 
-1  |BT| (S (S (VP (VP (PP (NP (PP (NP (NP (T1 (NN (sigmaG)))))))))))(: (;))(S (NP (DT (the))(NN (sspN-tlp))(NN (operon)))(VP (VBZ (is))(VP (VBN (recognized))(ADVP (RB (equally))(RB (well)))(PP (IN (by))(NP (NP (NN (sigmaG)))(CC (and))(NP (NP (DT (the))(JJ (other))(JJ (forespore-specific))(NN (sigma))(NN (factor)))(, (,))(NP (T2 (NN (sigmaF))))))))))) |ET| 
1.0129870129870128803162288022577  |BT| (VP (PP (NP (PP (NP (NP (T2 (NN (clpC)))(NN (operon)))(, (,))(CONJP (RB (as))(RB (well))(IN (as)))(NP (JJ (other))(NN (class))(CD (III))(NN (heat))(NN (shock))(NNS (genes)))(, (,))))))(PP (IN (by))(S (VP (VBG (preventing))(NP (NP (JJ (unstressed))(NN (transcription)))(PP (IN (from))(NP (CC (either))(DT (the))(ADJP (ADJP (JJ (sigmaB-)))(CC (or))(ADJP (T1 (JJ (sigmaA-dependent)))))))))))) |ET| 
-1  |BT| (NP (T1 (NP (NN (sigma))(NN (F))))(CC (and))(T2 (NP (NN (sigma))(NN (G))))) |ET| 
1.0129870129870128803162288022577  |BT| (S (NP (T2 (NN (sspN-tlp)))(NN (operon)))(VP (VBZ (is))(VP (VBN (recognized))(ADVP (RB (equally))(RB (well)))(PP (IN (by))(NP (NP (NN (sigmaG)))(CC (and))(NP (NP (DT (the))(JJ (other))(JJ (forespore-specific))(NN (sigma))(NN (factor)))(, (,))(NP (T1 (NN (sigmaF)))))))))) |ET| 
-0.74546061454755585540254969600937  |BT| (NP (NP (T1 (NN (sigmaG))))(CC (and))(NP (NP (DT (the))(JJ (other))(JJ (forespore-specific))(NN (sigma))(NN (factor)))(, (,))(NP (T2 (NN (sigmaF)))))) |ET| 
1.0129870129870128803162288022577  |BT| (NP (T2 (NP (NN (sigma))(NN (F))(NN (factor))))(, (,))(SBAR (WHNP (WDT (which)))(S (VP (VBZ (is))(NP (NP (PRP (itself)))(VP (VBN (activated))(PP (IN (through))(NP (NP (DT (the))(NN (action)))(PP (IN (of))(NP (NP (DT (the))(T1 (NN (SpoIIE)))))))))))))) |ET| 
-0.60685659355795784630771549927886  |BT| (VP (PP (S (VP (NP (PP (NP (T1 (NN (comF-flgM)))))))))(, (,))(S (ADVP (RB (thereby)))(VP (VBG (increasing))(NP (NP (DT (the))(NN (production)))(PP (IN (of))(NP (NP (DT (the))(NN (FlgM))(NN (antisigma))(NN (factor)))(SBAR (WHNP (WDT (that)))(S (VP (VBZ (inhibits))(NP (T2 (NN (sigmaD))))))))))))) |ET| 
0.88809266885274584790721519311774  |BT| (NP (T2 (NP (NN (sigma))(-LRB- (<LB>))(NN (A))(-RRB- (<RB>))(NN (-RNA))(NN (polymerase))))(PP (IN (from))(NP (DT (the))(T1 (JJ (Spo0A-dependent)))))) |ET| 
-0.95819653381285452287130510740099  |BT| (S (NP (NP (T1 (NN (ald)))(NN (promoter)))(, (,))(PP (IN (like))(NP (DT (the))(NN (sigE))(NN (promoter))))(, (,)))(VP (VBZ (is))(VP (VBN (believed))(S (VP (TO (to))(VP (VB (be))(VP (VBN (recognized))(PP (IN (by))(NP (NN (sigmaA))(NN (RNA))(NN (polymerase)))))))))(, (,))(S (VP (VBG (suggesting))(SBAR (IN (that))(S (NP (T2 (NN (sigmaK)))))))))) |ET| 
0.86887181823869830132878178119427  |BT| (S (NP (T1 (NN (SpoIIE))))(VP (VBZ (is))(ADJP (JJ (essential))(PP (IN (for))(NP (NP (DT (the))(NN (activation)))(PP (IN (of))(NP (NP (DT (the))(JJ (first))(JJ (compartment-specific))(NN (transcription))(NN (factor)))(T2 (NP (NP (NN (sigma)))(PRN (-LRB- (<LB>))(NP (NN (F)))(-RRB- (<RB>)))))))))))) |ET| 
-1  |BT| (NP (NP (NP (PRN (NP (T1 (NN (RacX))))(-RRB- (<RB>)))))(, (,))(NP (NP (NNS (homologues)))(PP (IN (of))(NP (NP (NN (signal))(NN (peptide))(NN (peptidase)))(PRN (-LRB- (<LB>))(NP (T2 (NNP (YteI))))))))) |ET| 
1.0129870129870128803162288022577  |BT| (S (NP (PP (NP (T2 (NN (sigE)))(NN (promoter))))(, (,)))(VP (VBZ (is))(VP (VBN (believed))(S (VP (TO (to))(VP (VB (be))(VP (VBN (recognized))(PP (IN (by))(NP (T1 (NN (sigmaA)))))))))))) |ET| 
-1  |BT| (VP (VP (PP (NP (T1 (NN (FtsZ))))))(CC (and))(VP (MD (could))(VP (VB (correspond))(PP (TO (to))(NP (NP (DT (the))(JJ (FtsZ-dependent))(NN (assembly)))(PP (IN (of))(NP (T2 (NN (SpoIIE)))))))))) |ET| 
1.0129870129870128803162288022577  |BT| (S (PP (NP (T2 (NN (spoIVA)))))(, (,))(VP (VBP (are))(PP (IN (under))(NP (NP (DT (the))(NN (control)))(PP (IN (of))(NP (DT (the))(NN (mother))(NN (cell))(NN (transcription))(NN (factor))(T1 (NN (sigmaE))))))))) |ET| 
-0.078990268040032007856865448047756  |BT| (S (S (NP (NP (T1 (NN (sspH)))(CC (and))(NN (sspL)))(NNS (genes)))(VP (VBP (are))(VP (VBN (recognized))(ADVP (RB (primarily)))(PP (IN (by))(NP (NP (DT (the))(JJ (forespore-specific))(NN (sigma))(NN (factor)))(PP (IN (for))(NP (NP (NN (RNA))(NN (polymerase)))(, (,))(NP (NN (sigmaG))))))))))(: (;))(S (NP (DT (the))(NN (sspN-tlp))(NN (operon)))(VP (VBZ (is))(VP (VBN (recognized))(ADVP (RB (equally))(RB (well)))(PP (IN (by))(NP (NP (T2 (NN (sigmaG)))))))))) |ET| 
1.0129870129870128803162288022577  |BT| (S (NP (T1 (NN (PhoP~P))))(VP (VBZ (is))(ADJP (JJ (sufficient))(S (VP (VP (TO (to))(VP (VB (repress))(NP (NP (DT (the))(NN (transcription)))(PP (IN (of))(NP (DT (the))(NP (NP (NN (tagA)))(CC (and))(NP (T2 (NN (tagD))))))))))))))) |ET| 
-1  |BT| (NP (T1 (NP (NP (NN (sigma)))(PRN (-LRB- (<LB>))(NP (NN (K)))(-RRB- (<RB>)))(: (-))))(CC (and))(NP (T2 (JJ (GerE-controlled))))) |ET| 
1.0129870129870128803162288022577  |BT| (S (NP (T2 (NN (sspN-tlp)))(NN (operon)))(VP (VBZ (is))(VP (VBN (recognized))(ADVP (RB (equally))(RB (well)))(PP (IN (by))(NP (NP (NN (sigmaG)))(CC (and))(NP (NP (DT (the))(JJ (other))(JJ (forespore-specific))(NN (sigma))(NN (factor)))(, (,))(NP (T1 (NN (sigmaF)))))))))) |ET| 
-1  |BT| (S (NP (NP (T1 (JJ (sigmaK-dependent)))(NN (transcription)))(PP (IN (of))(NP (NN (gerE)))))(VP (VBZ (initiates))(NP (NP (DT (a))(JJ (negative))(NN (feedback))(NN (loop)))(SBAR (WHPP (IN (in))(WHNP (WDT (which))))(S (NP (T2 (NN (GerE))))))))) |ET| 
1.0129870129870128803162288022577  |BT| (NP (PP (NP (NP (T2 (NN (cotC))))(, (,))(CC (and))(NP (NN (cotX))(NNS (genes)))))(PP (IN (by))(NP (T1 (NP (NP (JJ (final))(NN (sigma)))(PRN (-LRB- (<LB>))(NP (NN (K)))(-RRB- (<RB>)))))))) |ET| 
-1  |BT| (S (S (NP (NP (T1 (NN (sspL))))(NNS (genes)))(VP (VBP (are))(VP (VBN (recognized))(ADVP (RB (primarily)))(PP (IN (by))(NP (NP (DT (the))(JJ (forespore-specific))(NN (sigma))(NN (factor)))(PP (IN (for))(NP (NP (NN (RNA))(NN (polymerase)))(, (,))(NP (NN (sigmaG))))))))))(: (;))(S (NP (DT (the))(NN (sspN-tlp))(NN (operon)))(VP (VBZ (is))(VP (VBN (recognized))(ADVP (RB (equally))(RB (well)))(PP (IN (by))(NP (NP (NN (sigmaG)))(CC (and))(NP (NP (DT (the))(JJ (other))(JJ (forespore-specific))(NN (sigma))(NN (factor)))(, (,))(NP (T2 (NN (sigmaF))))))))))) |ET| 
-0.93814429471826765727371366665466  |BT| (NP (NP (NP (PRN (T1 (NP (NN (PBP4))(NN (*))))(-RRB- (<RB>))))(CC (and))(NP (NP (DT (a))(JJ (co-transcribed))(NN (amino))(NN (acid))(NN (racemase)))(PRN (-LRB- (<LB>))(NP (NN (RacX)))(-RRB- (<RB>)))))(, (,))(NP (NP (NNS (homologues)))(PP (IN (of))(NP (NP (NN (signal))(NN (peptide))(NN (peptidase)))(PRN (-LRB- (<LB>))(NP (NNP (YteI)))(-RRB- (<RB>))))))(, (,))(NP (NP (NN (flotillin)))(PRN (-LRB- (<LB>))(NP (T2 (NN (YuaG))))))) |ET| 
1.0129870129870128803162288022577  |BT| (S (NP (T2 (NN (ywhE)))(NN (expression)))(VP (VP (VBZ (is))(ADJP (JJ (sporulation-specific))))(, (,))(CC (and))(VP (VBZ (is))(VP (VP (VBN (controlled))(ADVP (RB (predominantly)))(PP (IN (by))(NP (NP (DT (the))(JJ (forespore-specific))(NN (sigma))(NN (factor)))(T1 (NP (NP (NN (sigma)))(PRN (-LRB- (<LB>))(NP (NN (F)))(-RRB- (<RB>)))))))))))) |ET| 
-0.96660522359261435987320965068648  |BT| (VP (VP (VP (NP (PP (NP (NP (NP (T1 (NN (tagA))))(CC (and))(NP (NN (tagD))))(NNS (promoters)))))))(CC (and))(VP (ADVP (RB (also)))(TO (to))(VP (VB (activate))(NP (NP (DT (the))(NN (transcription)))(PP (IN (of))(NP (DT (the))(T2 (NN (tuaA))))))))) |ET| 
-1  |BT| (VP (NP (PP (NP (T1 (NN (hag))))))(PP (IN (by))(S (VP (VBG (stimulating))(NP (NP (DT (the))(NN (transcription)))(PP (IN (of))(NP (NN (comF-flgM))))))))(, (,))(S (ADVP (RB (thereby)))(VP (VBG (increasing))(NP (NP (DT (the))(NN (production)))(PP (IN (of))(NP (NP (DT (the))(T2 (NN (FlgM)))))))))) |ET| 
0.44115963191254753406056465792062  |BT| (S (NP (PP (NP (T1 (NN (GerE))))))(VP (VBD (activated))(NP (T2 (NNP (cotB)))))) |ET| 
-0.76123964881411765315277762056212  |BT| (S (NP (PP (NP (T1 (NN (sigE)))(NN (promoter))))(, (,)))(VP (VBZ (is))(VP (VBN (believed))(S (VP (TO (to))(VP (VB (be))(VP (VBN (recognized))(PP (IN (by))(NP (NN (sigmaA))(NN (RNA))(NN (polymerase)))))))))(, (,))(S (VP (VBG (suggesting))(SBAR (IN (that))(S (NP (T2 (NN (sigmaK)))))))))) |ET| 
-0.90208067617322251763312124239746  |BT| (VP (VP (VP (PP (NP (T1 (JJ (SigL-containing)))(NN (RNA))(NN (polymerase))))))(CC (and))(VP (VBZ (requires))(PP (IN (for))(NP (NP (PRP$ (its))(NN (expression))(T2 (NN (RocR)))))))) |ET| 
0.65637256296262014299003340056515  |BT| (S (NP (T1 (NN (CtsR)))(NN (protein)))(VP (VP (VBZ (acts))(PP (IN (as))(NP (NP (DT (a))(JJ (global))(NN (repressor)))(PP (IN (of))(NP (NP (DT (the))(T2 (NN (clpC))))))))))) |ET| 
-0.7588275034862655976652945355454  |BT| (NP (NP (T1 (NN (cotX))))(CC (or))(NP (T2 (NN (cotC))))) |ET| 
1.0129870129870128803162288022577  |BT| (NP (NP (T1 (JJ (sigmaB-dependent)))(NNS (genes)))(PRN (-LRB- (<LB>))(NP (NP (NN (ydaE)))(, (,))(NP (T2 (NN (ydaG))))))) |ET| 
0.64256611503070393265346638145274  |BT| (S (NP (T1 (NN (ComK))))(ADVP (RB (negatively)))(VP (VBZ (regulates))(NP (NN (degR))(NN (expression)))(PP (IN (by))(S (VP (VBG (preventing))(NP (NP (T2 (NN (sigmaD-driven)))))))))) |ET| 
-1  |BT| (NP (NP (PRN (NP (T1 (NN (YuaG))))(-RRB- (<RB>))))(, (,))(NP (NP (NN (ABC))(NNS (transporters)))(PRN (-LRB- (<LB>))(NP (T2 (NNP (YknXYZ))))))) |ET| 
0.64121012128494780935028529711417  |BT| (S (NP (T2 (NN (nadE))))(VP (VBZ (is))(ADVP (RB (strongly)))(VP (VBN (induced))(PP (PP (IN (in))(NP (NP (NN (response)))(PP (TO (to))(NP (NP (NN (heat)))(, (,))(NP (NN (ethanol)))(CC (and))(NP (NN (salt))(NN (stress)))))))(CC (or))(PP (IN (after))(NP (NP (NN (starvation)))(PP (IN (for))(NP (NN (glucose)))))))(PP (IN (in))(NP (DT (a))(T1 (ADJP (NN (sigma))(JJ (B-dependent))))))))) |ET| 
-0.93093460401219418898222102143336  |BT| (S (NP (SBAR (S (VP (NP (PP (NP (T1 (NN (SpoIIE)))))))))(, (,)))(VP (VP (VBZ (depends))(PP (IN (on))(NP (DT (the))(NP (NN (cell))(NN (division)))(NN (protein))(NN (FtsZ)))))(CC (and))(VP (MD (could))(VP (VB (correspond))(PP (TO (to))(NP (NP (DT (the))(T2 (JJ (FtsZ-dependent)))))))))) |ET| 
0.75949571879696509135726500971941  |BT| (S (NP (NP (T2 (NN (YtxH))))(CC (and))(NP (NN (YvyD))))(VP (VBD (seemed))(S (VP (TO (to))(VP (VB (be))(VP (VBN (induced))(PP (IN (after))(NP (NN (phosphate))(NN (starvation))))(PP (PP (IN (in))(NP (NP (DT (the))(JJ (wild))(NN (type)))(PP (IN (in))(NP (DT (a))(T1 (ADJP (NN (sigma))(-LRB- (<LB>))(NN (B))(-RRB- (<RB>))))))))))))))) |ET| 
-1  |BT| (VP (VP (PP (NP (PP (NP (T1 (NN (cotC)))(NN (promoter))(NN (region)))))))(, (,))(VP (VBZ (binds))(ADVP (RB (weakly)))(PP (TO (to))(NP (NP (CD (one))(NN (site)))(PP (IN (in))(NP (DT (the))(NN (cotX))(NN (promoter)))))))(, (,))(CC (and))(VP (VBZ (does))(RB (not))(VP (VB (bind))(ADVP (RB (specifically)))(PP (TO (to))(NP (T2 (NNP (cotB)))))))) |ET| 
-0.63341444383805933782127794984262  |BT| (NP (T1 (NNP (SpoIIAB)))(, (,))(NP (DT (an))(NN (anti-anti-sigma))(NN (factor))(, (,))(T2 (NN (SpoIIAA))))) |ET| 
-0.96170702567072496869116093876073  |BT| (NP (NP (ADJP (PP (NP (SBAR (S (VP (NP (T1 (NP (NN (sigma))(CD (28))))))))))))(: (;))(NP (NP (NNP (SpoIIAB)))(, (,))(SBAR (WHNP (WDT (which)))(S (VP (VBZ (inhibits))(NP (NP (NP (DT (the))(JJ (sporulation-specific))(NN (sigma))(NN (factor)))(, (,))(NP (T2 (NP (NN (sigma))(NN (F)))))))))))) |ET| 
-0.3103000437428842794851391317934  |BT| (NP (NP (NP (T1 (NNP (RbsW))))(PP (IN (of))(NP (NP (FW (B.))(FW (subtilis)))(, (,))(SBAR (WHNP (WDT (which)))(S (VP (VBZ (inhibits))(NP (NN (stress))(NN (response))(NN (sigma))(NN (factor))(NN (sigma))(NN (B)))))))))(: (;))(CC (and))(NP (T2 (NNP (DnaK))))) |ET| 
-0.59878973249123879085686894541141  |BT| (S (S (VP (NP (PP (NP (T1 (NN (cotD)))))(PP (IN (by))(NP (NN (sigmaK))(NN (RNA))(NN (polymerase)))))(ADVP (FW (in))(FW (vitro)))))(, (,))(CC (but))(S (NP (NP (DT (a))(JJR (higher))(NN (level)))(PP (IN (of))(NP (NN (GerE)))))(VP (VBD (repressed))(NP (T2 (NN (cotD))))))) |ET| 
0.86378661616883978258130127869663  |BT| (NP (NP (T2 (NN (yvyD)))(NN (gene))(NN (product)))(, (,))(VP (VBG (being))(NP (NP (DT (a))(NN (member)))(PP (IN (of))(NP (CC (both))(DT (the))(NP (NP (T1 (NN (sigmaB)))))))))) |ET| 
1.0129870129870128803162288022577  |BT| (NP (NP (T2 (NN (gsiB))))(SBAR (WHNP (WDT (which)))(S (VP (VBZ (is))(ADVP (RB (also)))(NP (NP (DT (a))(NN (member)))(PP (IN (of))(NP (DT (the))(T1 (NN (sigmaB)))))))))) |ET| 
0.74276230995631120634925537160598  |BT| (S (NP (NP (T1 (JJ (sigmaW-dependent)))(NN (promoter)))(PRN (-LRB- (<LB>))(NP (NN (PW)))(-RRB- (<RB>))))(VP (VBZ (precedes))(NP (T2 (NNP (sigW)))))) |ET| 
0.56854358939814242379640063518309  |BT| (S (NP (T2 (NN (ydaP)))(NN (gene)))(VP (MD (might))(VP (VB (belong))(PP (TO (to))(NP (NP (DT (the))(VBG (increasing))(NN (number)))(PP (IN (of))(NP (NP (T1 (JJ (sigmaB-dependent))))))))))) |ET| 
-0.50542815514527772435826591390651  |BT| (S (S (NP (T1 (JJ (sigmaB-dependent)))(NN (promoter)))(VP (VBZ (drives))(NP (NP (NN (expression)))(PP (IN (of))(NP (NN (yvyD))))(PP (PP (IN (under))(NP (NN (stress))(NNS (conditions))))(CC (and))(PP (IN (after))(NP (NN (glucose))(NN (starvation))))))))(, (,))(IN (whereas))(S (NP (DT (a))(T2 (JJ (sigmaH-dependent)))))) |ET| 
0.55585555836209554758653439421323  |BT| (S (NP (T2 (NN (sigmaF))))(VP (VBZ (is))(VP (VBN (controlled))(PP (IN (by))(NP (NP (DT (a))(JJ (regulatory))(NN (cascade)))(VP (VBG (involving))(NP (NP (NP (DT (an))(NN (anti-sigma))(NN (factor)))(, (,))(NP (T1 (NNP (SpoIIAB)))))))))))) |ET| 
0.48457476646528963026838709993172  |BT| (S (NP (PP (NP (T1 (NN (GerE)))))(PP (IN (in))(NP (JJ (sporulating))(NNS (cells)))))(VP (MD (may))(ADVP (RB (first)))(VP (VBP (activate))(NP (NP (T2 (NN (cotD)))))))) |ET| 
-0.23742545593522193514424145632802  |BT| (S (S (VP (VP (PP (NP (PP (NP (NP (T1 (NN (sigmaG)))))))))))(: (;))(S (NP (DT (the))(T2 (NN (sspN-tlp)))))) |ET| 
0.25387781703378431430451200867537  |BT| (S (NP (T1 (NN (GerE))))(VP (VBZ (binds))(PP (TO (to))(NP (NP (CD (two))(NNS (sites)))(SBAR (WHNP (WDT (that)))(S (VP (VBP (span))(NP (NP (DT (the))(CD (-35))(NN (region)))(PP (IN (of))(NP (DT (the))(T2 (NN (cotD))))))))))))) |ET| 
0.49199539097074540539011877626763  |BT| (NP (T1 (JJ (Spo0A-dependent)))(T2 (NN (spoIIG)))) |ET| 
0.39837808327376150741017113432463  |BT| (S (NP (T1 (NN (ComK))))(ADVP (RB (negatively)))(VP (VBZ (regulates))(NP (NN (degR))(NN (expression)))(PP (IN (by))(S (VP (VBG (preventing))(NP (NP (NN (sigmaD-driven))(NN (transcription)))(PP (IN (of))(NP (T2 (NN (degR))))))))))) |ET| 
-0.34367660204803274215379360612133  |BT| (NP (NP (NP (PRN (NP (T1 (NN (RacX))))(-RRB- (<RB>)))))(, (,))(NP (NP (NNS (homologues)))(PP (IN (of))(NP (NP (NN (signal))(NN (peptide))(NN (peptidase)))(PRN (-LRB- (<LB>))(NP (NNP (YteI)))(-RRB- (<RB>))))))(, (,))(NP (NP (NN (flotillin)))(PRN (-LRB- (<LB>))(NP (NN (YuaG)))(-RRB- (<RB>))))(, (,))(NP (NP (NN (ABC))(NNS (transporters)))(PRN (-LRB- (<LB>))(NP (NNP (YknXYZ)))(-RRB- (<RB>))))(, (,))(NP (NP (NN (non-haem))(NN (bromoperoxidase)))(PRN (-LRB- (<LB>))(NP (NNP (YdjP)))(-RRB- (<RB>))))(, (,))(NP (NP (NN (epoxide))(NN (hydrolase)))(PRN (-LRB- (<LB>))(NP (T2 (NNP (YfhM))))))) |ET| 
0.31512253253647137807291755962069  |BT| (S (NP (T2 (NN (sspJ))))(VP (VP (VBZ (is))(VP (VBN (transcribed))(PP (IN (in))(NP (DT (the))(NN (forespore))(NN (compartment))))(PP (IN (by))(NP (NP (NN (RNA))(NN (polymerase)))(PP (IN (with))(NP (DT (the))(JJ (forespore-specific))(T1 (NN (sigmaG))))))))))) |ET| 
0.20924325991040099159690157648583  |BT| (S (T1 (NP (NN (sigma))(NN (W))(NN (regulon))))(VP (VBZ (includes))(NP (NP (NP (NP (DT (a))(NN (penicillin))(NN (binding))(NN (protein)))(PRN (-LRB- (<LB>))(NP (NN (PBP4))(NN (*)))(-RRB- (<RB>))))(CC (and))(NP (NP (DT (a))(JJ (co-transcribed))(NN (amino))(NN (acid))(NN (racemase)))(PRN (-LRB- (<LB>))(NP (NN (RacX)))(-RRB- (<RB>)))))(, (,))(NP (NP (NNS (homologues)))(PP (IN (of))(NP (NP (NN (signal))(NN (peptide))(NN (peptidase)))(PRN (-LRB- (<LB>))(NP (NNP (YteI)))(-RRB- (<RB>))))))(, (,))(NP (NP (NN (flotillin)))(PRN (-LRB- (<LB>))(NP (NN (YuaG)))(-RRB- (<RB>))))(, (,))(NP (NP (NN (ABC))(NNS (transporters)))(PRN (-LRB- (<LB>))(NP (NNP (YknXYZ)))(-RRB- (<RB>))))(, (,))(NP (NP (NN (non-haem))(NN (bromoperoxidase)))(PRN (-LRB- (<LB>))(NP (T2 (NNP (YdjP))))))))) |ET| 
0.49186904031599498754445676240721  |BT| (S (NP (T1 (NN (GerE))))(VP (VBZ (binds))(PP (TO (to))(NP (NP (DT (a))(NN (site)))(PP (IN (on))(NP (NP (NP (CD (one)))(PP (IN (of))(NP (DT (these))(NNS (promoters)))))(, (,))(NP (T2 (NN (cotX)))))))))) |ET| 
0.44729434245711452433624799596146  |BT| (S (NP (NP (T1 (NP (NP (NN (sigma)))(PRN (-LRB- (<LB>))(NP (NN (X)))(-RRB- (<RB>))))))(NNS (holoenzymes)))(VP (VBP (recognize))(NP (NP (NN (promoter))(NNS (elements)))(PP (IN (within))(NP (DT (the))(T2 (NN (sigX-ypuN)))))))) |ET| 
0.30841793616630430729941281242645  |BT| (S (NP (PP (NP (T2 (NN (SpoIIE))))))(VP (VBD (was))(VP (VBN (shown))(S (VP (TO (to))(VP (VB (be))(ADJP (JJ (dependent))(PP (IN (on))(NP (DT (the))(NP (JJ (essential))(NN (cell))(NN (division)))(NN (protein))(T1 (NN (FtsZ)))))))))))) |ET| 
-0.24599250575883996328130365327524  |BT| (S (NP (NP (NP (T1 (NNP (FlgM))))(, (,))(ADJP (JJ (present))(PP (IN (in))(NP (NP (ADJP (CC (both))(ADJP (JJ (gram-positive)))(CC (and))(ADJP (JJ (gram-negative))))(NNS (bacteria)))(, (,))(SBAR (WHNP (WDT (which)))(S (VP (VBZ (inhibits))(NP (DT (the))(NNS (flagella))(NP (NN (sigma))(NN (factor))(NN (sigma))(CD (28)))))))))))(: (;))(NP (NP (NNP (SpoIIAB)))(, (,))(SBAR (WHNP (WDT (which)))(S (VP (VBZ (inhibits))(NP (NP (NP (DT (the))(JJ (sporulation-specific))(NN (sigma))(NN (factor)))(, (,))(NP (NP (NN (sigma))(NN (F)))(CC (and))(NP (NN (sigma))(NN (G))))(, (,)))(PP (IN (of))(NP (FW (Bacillus))(FW (subtilis)))))))))(: (;))(NP (NP (NNP (RbsW)))(PP (IN (of))(NP (NP (FW (B.))(FW (subtilis)))(, (,))(SBAR (WHNP (WDT (which)))(S (VP (VBZ (inhibits))(NP (NN (stress))(NN (response))(NN (sigma))(NN (factor))(NN (sigma))(NN (B)))))))))(: (;))(CC (and))(NP (NNP (DnaK))))(, (,))(NP (NP (DT (a))(JJ (general))(NN (regulator)))(PP (IN (of))(NP (NP (DT (the))(NN (heat))(NN (shock))(NN (response)))(, (,))(SBAR (WHNP (WDT (which)))(S (PP (IN (in))(NP (NNS (bacteria))))(VP (VBZ (inhibits))(T2 (NP (DT (the))(NN (heat))(NN (shock))(NN (sigma))(NN (factor))(NN (sigma))(CD (32))))))))))) |ET| 
-0.61120973473289708088884708558908  |BT| (NP (NP (T1 (NN (sigmaB))))(CC (and))(NP (T2 (NN (sigmaH))))) |ET| 
-0.35691521819107657753633588981756  |BT| (VP (PP (NP (T1 (NP (NP (NN (sigma)))(PRN (-LRB- (<LB>))(NP (NN (K)))(-RRB- (<RB>)))))(NN (RNA))(NN (polymerase))))(, (,))(SBAR (IN (whereas))(S (NP (DT (a))(JJR (higher))(NN (concentration)))(VP (VBD (was))(VP (VBN (needed))(S (VP (TO (to))(VP (VB (activate))(NP (NP (NN (transcription)))(PP (IN (of))(NP (NP (T2 (NN (cotX))))))))))))))) |ET| 
0.23459907159343879046176084557374  |BT| (S (NP (T1 (NN (SpoIIE))))(VP (VBZ (blocks))(NP (NP (DT (the))(NN (capacity)))(PP (IN (of))(NP (JJ (unphosphorylated))(T2 (NN (SpoIIAA)))))))) |ET| 
0.25191944485726669444858316637692  |BT| (NP (T1 (JJ (sigmaB-dependent)))(T2 (NN (katX)))) |ET| 
0.31606086437448471793132398488524  |BT| (S (NP (NP (T1 (NN (SigK))))(CC (and))(NP (NN (GerE))))(VP (VBD (were))(ADJP (JJ (essential))(PP (IN (for))(NP (T2 (NN (ykvP)))))))) |ET| 
0.25488058266720475808497781144979  |BT| (S (NP (T1 (NN (SpoIIE)))(NN (phosphatase)))(ADVP (RB (indirectly)))(VP (VBZ (activates))(NP (NN (sigmaF)))(PP (IN (by))(S (VP (VBG (dephosphorylating))(NP (NP (NP (DT (a))(NN (protein)))(PRN (-LRB- (<LB>))(NP (T2 (NN (SpoIIAA-P)))))))))))) |ET| 
-0.29576506152875176036687321357022  |BT| (NP (NP (T1 (NN (YtxH))))(CC (and))(NP (T2 (NN (YvyD))))) |ET| 
-0.82705578756849607025003479066072  |BT| (NP (NP (NP (T1 (NNP (SpoIIAB))))(, (,))(SBAR (WHNP (WDT (which)))(S (VP (VBZ (inhibits))(NP (NP (NP (DT (the))(JJ (sporulation-specific))(NN (sigma))(NN (factor)))(, (,))(NP (NP (NN (sigma))(NN (F)))(CC (and))(NP (NN (sigma))(NN (G))))(, (,)))(PP (IN (of))(NP (FW (Bacillus))(FW (subtilis)))))))))(: (;))(NP (NP (T2 (NNP (RbsW)))))) |ET| 
1.0129870129870128803162288022577  |BT| (S (NP (PP (NP (NP (T2 (NNP (cotB)))(, (,))(NN (cotC)))(, (,))(CC (and))(NP (NN (cotX))(NNS (genes)))))(PP (IN (by))(NP (NP (NP (JJ (final))(NN (sigma)))(PRN (-LRB- (<LB>))(NP (NN (K)))(-RRB- (<RB>))))(NN (RNA))(NN (polymerase)))))(VP (VBZ (is))(VP (VBN (activated))(PP (IN (by))(NP (NP (DT (a))(ADJP (ADJP (JJ (small)))(, (,))(ADJP (JJ (DNA-binding))))(NN (protein)))(VP (VBN (called))(S (NP (T1 (NN (GerE))))))))))) |ET| 
-0.30124859699259676215632453022408  |BT| (NP (NP (T1 (NN (ydaG))))(CC (and))(NP (T2 (NN (yfkM))))) |ET| 
0.30270737175819323327985443938815  |BT| (NP (NP (T1 (JJ (FtsZ-dependent)))(NN (assembly)))(PP (IN (of))(NP (T2 (NN (SpoIIE)))))) |ET| 
0.21885974712716332879480773954128  |BT| (S (NP (T2 (NN (ftsY))))(VP (VBZ (is))(ADVP (RB (solely)))(VP (VBN (expressed))(PP (IN (during))(NP (NP (NN (sporulation)))(PP (IN (from))(NP (NP (NP (NP (DT (a))(NN (sigma)))(PRN (-LRB- (<LB>))(NP (NN (K)))(-RRB- (<RB>)))(: (-)))(CC (and))(NP (T1 (JJ (GerE-controlled)))))))))))) |ET| 
-0.22117208306860289268591657219076  |BT| (NP (NP (PRN (NP (T1 (NNP (YdjP))))(-RRB- (<RB>))))(, (,))(NP (NP (NN (epoxide))(NN (hydrolase)))(PRN (-LRB- (<LB>))(NP (T2 (NNP (YfhM))))))) |ET| 
-0.59786596783656753562041785698966  |BT| (S (S (NP (NP (T1 (NN (sspH)))(CC (and))(NN (sspL)))(NNS (genes)))(VP (VBP (are))(VP (VBN (recognized))(ADVP (RB (primarily)))(PP (IN (by))(NP (NP (DT (the))(JJ (forespore-specific))(NN (sigma))(NN (factor)))(PP (IN (for))(NP (NP (NN (RNA))(NN (polymerase)))(, (,))(NP (NN (sigmaG))))))))))(: (;))(S (NP (DT (the))(T2 (NN (sspN-tlp)))))) |ET| 
0.16663563967919456376698406074865  |BT| (S (NP (NP (T2 (NN (YvyD)))))(VP (VBD (seemed))(S (VP (TO (to))(VP (VB (be))(VP (VBN (induced))(PP (IN (after))(NP (NN (phosphate))(NN (starvation))))(PP (PP (IN (in))(NP (NP (DT (the))(JJ (wild))(NN (type)))(PP (IN (in))(NP (DT (a))(ADJP (NN (sigma))(-LRB- (<LB>))(NN (B))(-RRB- (<RB>))(JJ (-dependent)))(NN (manner))))))(CC (and))(PP (IN (in))(NP (DT (the))(NN (sigB))(NN (mutant)))))(PP (ADVP (RB (probably)))(IN (via))(T1 (NP (NP (NN (sigma)))(PRN (-LRB- (<LB>))(NP (NN (H)))(-RRB- (<RB>)))))))))))) |ET| 
-0.17874592069037545383203280380258  |BT| (NP (NP (PP (NP (PRN (NP (T1 (NNP (YteI))))(-RRB- (<RB>))))))(, (,))(NP (NP (NN (flotillin)))(PRN (-LRB- (<LB>))(NP (NN (YuaG)))(-RRB- (<RB>))))(, (,))(NP (NP (NN (ABC))(NNS (transporters)))(PRN (-LRB- (<LB>))(NP (NNP (YknXYZ)))(-RRB- (<RB>))))(, (,))(NP (NP (NN (non-haem))(NN (bromoperoxidase)))(PRN (-LRB- (<LB>))(NP (NNP (YdjP)))(-RRB- (<RB>))))(, (,))(NP (NP (NN (epoxide))(NN (hydrolase)))(PRN (-LRB- (<LB>))(NP (T2 (NNP (YfhM))))))) |ET| 
-0.12186979861707163130812858753416  |BT| (NP (NP (NP (T1 (NNP (FlgM))))(, (,))(ADJP (JJ (present))(PP (IN (in))(NP (NP (ADJP (CC (both))(ADJP (JJ (gram-positive)))(CC (and))(ADJP (JJ (gram-negative))))(NNS (bacteria)))(, (,))(SBAR (WHNP (WDT (which)))(S (VP (VBZ (inhibits))(NP (DT (the))(NNS (flagella))(NP (NN (sigma))(NN (factor))(NN (sigma))(CD (28)))))))))))(: (;))(NP (NP (NNP (SpoIIAB)))(, (,))(SBAR (WHNP (WDT (which)))(S (VP (VBZ (inhibits))(NP (NP (NP (DT (the))(JJ (sporulation-specific))(NN (sigma))(NN (factor)))(, (,))(NP (NP (NN (sigma))(NN (F)))(CC (and))(T2 (NP (NN (sigma))(NN (G)))))))))))) |ET| 
0.15892322999522337512168235207355  |BT| (S (NP (PP (NP (T1 (NN (GerE))))))(VP (VBD (activated))(NP (NNP (cotB))(NN (transcription)))(PP (IN (by))(NP (T2 (NP (NP (JJ (final))(NN (sigma)))(PRN (-LRB- (<LB>))(NP (NN (K)))(-RRB- (<RB>))))))))) |ET| 
-0.54285360384270620048852151739993  |BT| (S (S (NP (NP (T1 (NN (sspH)))(CC (and))(NN (sspL)))(NNS (genes)))(VP (VBP (are))(VP (VBN (recognized))(ADVP (RB (primarily)))(PP (IN (by))(NP (NP (DT (the))(JJ (forespore-specific))(NN (sigma))(NN (factor)))(PP (IN (for))(NP (NP (NN (RNA))(NN (polymerase)))(, (,))(NP (NN (sigmaG))))))))))(: (;))(S (NP (DT (the))(NN (sspN-tlp))(NN (operon)))(VP (VBZ (is))(VP (VBN (recognized))(ADVP (RB (equally))(RB (well)))(PP (IN (by))(NP (NP (NN (sigmaG)))(CC (and))(NP (NP (DT (the))(JJ (other))(JJ (forespore-specific))(NN (sigma))(NN (factor)))(, (,))(NP (T2 (NN (sigmaF))))))))))) |ET| 
-0.12412314937227175715150906398776  |BT| (NP (NP (T1 (NN (tagA))))(CC (and))(NP (T2 (NN (tagD))))) |ET| 
0.18080962704157257925352553229459  |BT| (S (NP (T1 (NN (GerE)))(NN (protein)))(VP (VBZ (inhibits))(NP (NP (NN (transcription)))(PP (IN (in))(NP (NP (FW (vitro)))(PP (IN (of))(NP (NP (DT (the))(T2 (NN (sigK))))))))))) |ET| 
-0.63843425959399480174027985412977  |BT| (NP (NP (SBAR (S (VP (NP (NP (NP (T1 (NP (NN (sigma))(NN (F))))(CC (and))(NP (NN (sigma))(NN (G))))(, (,)))(PP (IN (of))(NP (FW (Bacillus))(FW (subtilis)))))))))(: (;))(NP (NP (NNP (RbsW)))(PP (IN (of))(NP (NP (FW (B.))(FW (subtilis)))(, (,))(SBAR (WHNP (WDT (which)))(S (VP (VBZ (inhibits))(T2 (NP (NN (stress))(NN (response))(NN (sigma))(NN (factor))(NN (sigma))(NN (B))))))))))) |ET| 
-0.15676197727644960999704437654145  |BT| (VP (PP (S (VP (NP (PP (NP (T1 (NN (comF-flgM)))))))))(, (,))(S (ADVP (RB (thereby)))(VP (VBG (increasing))(NP (NP (DT (the))(NN (production)))(PP (IN (of))(NP (NP (DT (the))(T2 (NN (FlgM)))))))))) |ET| 
0.064665173325579444751909363731102  |BT| (S (NP (T1 (NN (GerE))))(VP (VBZ (stimulates))(NP (NP (NN (transcription)))(PP (IN (from))(NP (NP (JJ (several))(NNS (promoters)))(SBAR (WHNP (WDT (that)))(S (VP (VBP (are))(VP (VBN (used))(PP (IN (by))(NP (NP (NN (RNA))(NN (polymerase)))(VP (VBG (containing))(NP (T2 (NN (sigmaK)))))))))))))))) |ET| 
-0.089930069551380137360396815893182  |BT| (NP (NP (PRN (NP (T1 (NNP (YknXYZ))))(-RRB- (<RB>))))(, (,))(NP (NP (NN (non-haem))(NN (bromoperoxidase)))(PRN (-LRB- (<LB>))(NP (T2 (NNP (YdjP))))))) |ET| 
-0.044319966091252938067412969758152  |BT| (NP (NP (NP (PRN (NP (T1 (NN (RacX))))(-RRB- (<RB>)))))(, (,))(NP (NP (NNS (homologues)))(PP (IN (of))(NP (NP (NN (signal))(NN (peptide))(NN (peptidase)))(PRN (-LRB- (<LB>))(NP (NNP (YteI)))(-RRB- (<RB>))))))(, (,))(NP (NP (NN (flotillin)))(PRN (-LRB- (<LB>))(NP (T2 (NN (YuaG))))))) |ET| 
-0.04433750431984104928284651236936  |BT| (NP (T1 (NNP (SpoIIAB)))(, (,))(NP (DT (an))(NN (anti-anti-sigma))(NN (factor))(, (,))(NN (SpoIIAA))(, (,))(CC (and))(NP (DT (a))(JJ (membrane-bound))(NN (phosphatase))))(, (,))(NP (T2 (NNP (SpoIIE))))) |ET| 
0.026322485210144731110348814695499  |BT| (S (NP (PP (NP (T2 (NN (rsfA))))))(VP (VBZ (is))(PP (IN (under))(NP (NP (DT (the))(NN (control)))(PP (IN (of))(NP (CC (both))(NP (NP (NN (sigma)))(PRN (-LRB- (<LB>))(NP (NN (F)))(-RRB- (<RB>))))(CC (and))(T1 (NP (NP (NN (sigma)))(PRN (-LRB- (<LB>))(NP (NN (G)))(-RRB- (<RB>))))))))))) |ET| 
